907 100
</s> 0.004003 0.004419 -0.003830 -0.003278 0.001367 0.003021 0.000941 0.000211 -0.003604 0.002218 -0.004356 0.001250 -0.000751 -0.000957 -0.003316 -0.001882 0.002579 0.003025 0.002969 0.001597 0.001545 -0.003803 -0.004096 0.004970 0.003801 0.003090 -0.000604 0.004016 -0.000495 0.000735 -0.000149 -0.002983 0.001312 -0.001337 -0.003825 0.004754 0.004379 -0.001095 -0.000226 0.000509 -0.003638 -0.004007 0.004555 0.000063 -0.002582 -0.003042 -0.003076 0.001697 0.000201 0.001331 -0.004214 -0.003808 -0.000130 0.001144 0.002550 -0.003170 0.004080 0.000927 0.001120 -0.000608 0.002986 -0.002288 -0.002097 0.002158 -0.000753 0.001031 0.001805 -0.004089 -0.001983 0.002914 0.004232 0.003932 -0.003047 -0.002108 -0.000909 0.002001 -0.003788 0.002998 0.002788 -0.001599 -0.001552 -0.002238 0.004229 0.003912 -0.001180 0.004215 0.004820 0.001815 0.004983 -0.003111 -0.001532 -0.002107 -0.002907 0.002815 0.001579 0.000425 -0.002194 0.001524 0.003059 0.000194 
California 0.139891 -0.078454 0.092649 -0.105860 -0.091232 -0.011527 0.090036 -0.107788 -0.010699 0.161685 0.161716 0.059916 -0.361629 -0.155041 0.088841 0.182282 0.242913 0.064150 0.079941 0.005957 -0.127558 0.203840 0.062095 -0.051674 0.091560 -0.175421 -0.095213 0.024179 0.091834 0.253415 0.046047 -0.226806 -0.205268 0.162230 -0.122340 0.140547 0.238435 -0.151012 -0.098511 -0.106996 -0.074156 0.185750 -0.088899 0.000691 -0.051082 0.168890 0.045275 0.241080 -0.107390 -0.220208 0.065109 0.020620 0.218969 0.136018 0.021666 0.015807 -0.010405 0.123624 0.046844 -0.169674 -0.008160 -0.041498 0.045268 -0.010078 0.021961 0.110340 -0.220830 -0.010097 0.091960 0.193740 -0.208514 -0.003275 0.280062 -0.032650 -0.228484 0.075462 -0.228043 -0.227725 -0.246887 -0.086586 -0.087487 0.158940 0.013571 -0.131390 -0.110888 0.105726 0.193805 0.024686 0.210231 -0.043823 0.034837 0.076814 0.348207 0.145387 -0.039503 -0.017675 -0.031712 0.024781 -0.019655 -0.067391 
Texas 0.124021 -0.074488 0.088276 -0.110787 -0.097086 -0.010228 0.091960 -0.097723 0.006109 0.177099 0.165028 0.061829 -0.356865 -0.161715 0.098183 0.183622 0.256650 0.076006 0.070559 0.011305 -0.127591 0.211533 0.057195 -0.037436 0.089668 -0.161414 -0.101890 0.022666 0.091040 0.264347 0.048061 -0.222848 -0.209509 0.167700 -0.130311 0.131109 0.242193 -0.152559 -0.091751 -0.110643 -0.065801 0.186682 -0.082811 0.001551 -0.038375 0.162022 0.045815 0.250118 -0.106952 -0.237429 0.072823 0.022702 0.212290 0.135052 0.035791 0.008548 -0.000788 0.119277 0.055414 -0.150725 -0.004425 -0.035717 0.033776 -0.010756 0.021794 0.099914 -0.221535 -0.021324 0.093582 0.185096 -0.207984 0.007273 0.285108 -0.040580 -0.222581 0.079434 -0.231060 -0.217839 -0.269665 -0.088226 -0.077736 0.162848 0.011556 -0.110225 -0.105767 0.097181 0.185623 0.017764 0.212633 -0.045406 0.033051 0.074402 0.351385 0.140876 -0.033272 -0.026015 -0.028545 0.028099 -0.013242 -0.059248 
Florida 0.128455 -0.063192 0.080522 -0.106720 -0.091238 -0.008683 0.091035 -0.100339 0.010786 0.170597 0.152211 0.074124 -0.361558 -0.161254 0.088874 0.181525 0.254496 0.071271 0.074493 -0.004074 -0.134001 0.209009 0.051568 -0.050259 0.086819 -0.168566 -0.101025 0.028027 0.105854 0.251409 0.042349 -0.218230 -0.212620 0.174889 -0.118023 0.142964 0.240315 -0.143385 -0.082606 -0.109032 -0.060735 0.185246 -0.092782 0.008547 -0.036316 0.153411 0.042373 0.239709 -0.097534 -0.244391 0.082443 0.028519 0.214982 0.133936 0.020366 0.005091 -0.000777 0.136186 0.043247 -0.154281 -0.010114 -0.030069 0.035832 -0.010035 0.026286 0.107923 -0.235567 -0.022991 0.085859 0.180865 -0.194019 0.007587 0.279095 -0.039440 -0.230905 0.076943 -0.226683 -0.232516 -0.271851 -0.094590 -0.078019 0.165696 0.007905 -0.126254 -0.111656 0.093312 0.176127 0.029613 0.212198 -0.031570 0.029633 0.067755 0.346955 0.150606 -0.027017 -0.011504 -0.023072 0.028858 -0.007830 -0.065998 
Arizona 0.123405 -0.064694 0.074844 -0.101082 -0.094815 -0.010843 0.080066 -0.082648 0.011903 0.169910 0.152473 0.071659 -0.347851 -0.151732 0.087199 0.180351 0.234382 0.077568 0.075282 0.014665 -0.127354 0.204097 0.056864 -0.050414 0.097271 -0.169506 -0.105735 0.024462 0.100891 0.247863 0.043629 -0.217916 -0.202987 0.170508 -0.121475 0.116149 0.235103 -0.134429 -0.087528 -0.096751 -0.072038 0.177128 -0.081742 -0.002714 -0.036237 0.144474 0.049332 0.230086 -0.099181 -0.222055 0.070677 0.032690 0.214368 0.139199 0.021417 0.009422 0.002836 0.131168 0.049052 -0.145003 -0.010903 -0.030140 0.033844 -0.007429 0.011816 0.098868 -0.219998 -0.018170 0.097300 0.182964 -0.193989 -0.007112 0.282839 -0.033211 -0.229731 0.085206 -0.229251 -0.221563 -0.249212 -0.074395 -0.084585 0.158230 0.003619 -0.123977 -0.109758 0.095763 0.181088 0.031407 0.211317 -0.030681 0.031944 0.070282 0.334162 0.135961 -0.036120 -0.020469 -0.017029 0.030018 -0.016507 -0.061526 
slow 0.135280 -0.054882 0.082670 -0.111446 -0.102623 -0.012585 0.086232 -0.068741 0.040303 0.160649 0.161603 0.088328 -0.374072 -0.149262 0.108352 0.177816 0.268931 0.094795 0.036365 -0.011778 -0.141003 0.194484 0.040336 -0.041539 0.099772 -0.154632 -0.129403 0.028493 0.111171 0.273314 0.046166 -0.209392 -0.225626 0.160425 -0.130179 0.112930 0.252959 -0.137028 -0.083591 -0.112746 -0.059005 0.168953 -0.086371 0.018135 -0.036408 0.157812 0.035374 0.247295 -0.114136 -0.258672 0.082066 0.044888 0.214171 0.158678 0.046524 0.005203 0.021991 0.119320 0.037023 -0.110336 -0.021013 -0.011766 0.010060 -0.013980 0.013631 0.096156 -0.246125 -0.015521 0.092338 0.172996 -0.196294 -0.010126 0.290340 -0.037825 -0.212557 0.088908 -0.229511 -0.212932 -0.294225 -0.082726 -0.061152 0.162005 -0.014286 -0.104806 -0.117883 0.074733 0.166295 0.027739 0.218050 -0.023472 0.027901 0.064614 0.342225 0.139941 -0.013698 -0.012715 -0.008129 0.050409 0.001964 -0.069335 
Ohio 0.133969 -0.068587 0.080922 -0.107996 -0.093834 -0.012857 0.076403 -0.088788 0.018723 0.165646 0.148858 0.071817 -0.349334 -0.141152 0.094709 0.166710 0.243875 0.080099 0.052850 0.005587 -0.120716 0.191469 0.051442 -0.040201 0.091917 -0.152122 -0.108834 0.029953 0.089002 0.248849 0.051230 -0.196931 -0.207858 0.162582 -0.111376 0.123306 0.236790 -0.138557 -0.079762 -0.101515 -0.064567 0.175483 -0.091076 0.004194 -0.042562 0.156117 0.033614 0.232473 -0.093935 -0.225326 0.076479 0.031847 0.208807 0.131114 0.030322 0.015983 0.008479 0.121765 0.045198 -0.137699 -0.016167 -0.027454 0.024511 -0.016571 0.012268 0.103515 -0.218236 -0.029261 0.079372 0.176197 -0.189621 0.004505 0.268293 -0.035040 -0.216872 0.086156 -0.222555 -0.208987 -0.260199 -0.073035 -0.078730 0.146651 0.012321 -0.107790 -0.109473 0.084413 0.173797 0.028219 0.205838 -0.026854 0.038833 0.070953 0.327769 0.127796 -0.035029 -0.018694 -0.020274 0.038436 -0.009988 -0.055917 
Thailand 0.143986 -0.050636 0.073117 -0.117823 -0.110598 -0.005051 0.061575 -0.079026 0.065890 0.172549 0.174916 0.087351 -0.371572 -0.152465 0.117532 0.177952 0.272035 0.085745 0.026802 -0.007068 -0.140396 0.223703 0.043076 -0.019302 0.093221 -0.157205 -0.124267 0.007198 0.122175 0.289892 0.035816 -0.216797 -0.219663 0.173927 -0.148204 0.125142 0.261828 -0.154272 -0.093326 -0.109992 -0.062456 0.180133 -0.091893 -0.004987 -0.041257 0.161446 0.036147 0.253184 -0.113222 -0.264243 0.086846 0.046014 0.202388 0.153638 0.044079 0.015053 0.015848 0.117273 0.050753 -0.116296 -0.023378 -0.017601 0.021431 -0.010479 0.008979 0.096684 -0.261608 -0.033642 0.111117 0.165156 -0.197670 -0.003634 0.274082 -0.055034 -0.215676 0.097100 -0.230850 -0.241295 -0.286138 -0.093656 -0.062328 0.164511 -0.004387 -0.116023 -0.141335 0.081518 0.179966 0.055723 0.231735 -0.032769 0.008894 0.067228 0.356816 0.153736 -0.008193 -0.039144 -0.008557 0.060704 0.010810 -0.051213 
Russia 0.143795 -0.064627 0.080219 -0.128597 -0.096026 -0.018149 0.064192 -0.077620 0.061947 0.179202 0.148895 0.084801 -0.355735 -0.145278 0.109081 0.164780 0.255844 0.079443 0.028373 0.004146 -0.146936 0.204649 0.029904 -0.024813 0.086833 -0.162480 -0.122358 0.000729 0.117528 0.280235 0.042349 -0.219487 -0.215943 0.156328 -0.128970 0.123077 0.253963 -0.151773 -0.096033 -0.102078 -0.064718 0.172639 -0.088916 -0.008259 -0.038002 0.135554 0.030796 0.236941 -0.095236 -0.249984 0.105018 0.036119 0.202262 0.143919 0.034257 0.018904 0.020238 0.114595 0.051135 -0.112707 -0.010727 -0.009692 0.003138 -0.009537 0.013135 0.098936 -0.250465 -0.022966 0.105014 0.164362 -0.182101 -0.017239 0.279386 -0.054939 -0.200622 0.083327 -0.220380 -0.217882 -0.283967 -0.079160 -0.060792 0.154003 -0.001946 -0.099945 -0.141962 0.071275 0.169941 0.054099 0.223308 -0.031863 0.010310 0.053864 0.343276 0.144189 -0.009111 -0.019932 0.006279 0.065091 0.020404 -0.050071 
Sweden 0.139168 -0.062255 0.075718 -0.115621 -0.099881 -0.014159 0.068370 -0.070759 0.060901 0.171467 0.155246 0.081806 -0.344983 -0.153288 0.101098 0.174189 0.251061 0.071764 0.024006 -0.006503 -0.141793 0.208339 0.035951 -0.033600 0.091846 -0.156503 -0.118836 0.015714 0.109842 0.261884 0.042246 -0.216881 -0.206751 0.163612 -0.134709 0.109324 0.242534 -0.136828 -0.087431 -0.114452 -0.054929 0.158442 -0.081422 0.004873 -0.050789 0.145335 0.025588 0.240540 -0.103604 -0.244822 0.095057 0.040740 0.192685 0.147075 0.042508 0.016627 0.016593 0.117825 0.041878 -0.101194 -0.027195 -0.018239 0.019256 -0.014118 0.018330 0.100594 -0.241815 -0.026095 0.092810 0.156344 -0.184527 -0.011607 0.259547 -0.042057 -0.195195 0.095068 -0.212172 -0.225036 -0.268575 -0.080560 -0.052807 0.151581 -0.007945 -0.100514 -0.122471 0.069745 0.162526 0.050881 0.209870 -0.019331 0.009739 0.064460 0.331200 0.143821 -0.007503 -0.027593 -0.005867 0.057255 0.017416 -0.051466 
Japan 0.129775 -0.066295 0.067382 -0.122101 -0.095523 -0.011800 0.066267 -0.064461 0.054079 0.161195 0.150879 0.078567 -0.354630 -0.155544 0.102209 0.164133 0.260084 0.086063 0.025159 0.007799 -0.143219 0.201238 0.025359 -0.023855 0.088467 -0.157586 -0.126725 0.018372 0.108105 0.274968 0.050636 -0.214354 -0.219336 0.167250 -0.136240 0.126120 0.247828 -0.140802 -0.082072 -0.108508 -0.059551 0.161284 -0.074626 0.002297 -0.048409 0.149609 0.024531 0.243665 -0.092818 -0.240721 0.101416 0.038032 0.200259 0.159786 0.034769 0.024364 0.007747 0.122605 0.038699 -0.110205 -0.018744 -0.020360 0.015391 -0.006329 0.004128 0.089353 -0.253604 -0.017790 0.096255 0.159317 -0.180080 -0.013521 0.276913 -0.048756 -0.212246 0.094515 -0.226893 -0.228709 -0.286851 -0.087199 -0.050187 0.156219 -0.015625 -0.105862 -0.125326 0.071095 0.161788 0.042778 0.224386 -0.031980 0.018456 0.070313 0.343556 0.140554 -0.018254 -0.021515 -0.014549 0.053179 0.023954 -0.048659 
Washington 0.127625 -0.075675 0.082113 -0.102493 -0.093288 -0.004452 0.096624 -0.083553 0.008482 0.171744 0.151045 0.072882 -0.351749 -0.156224 0.104273 0.175285 0.247778 0.068948 0.059160 0.010220 -0.124856 0.195917 0.057182 -0.049550 0.086215 -0.155573 -0.113391 0.025435 0.093766 0.258185 0.053804 -0.218821 -0.215993 0.168297 -0.118821 0.132485 0.247616 -0.150350 -0.093051 -0.104695 -0.055340 0.185505 -0.092537 0.002893 -0.053911 0.160382 0.035739 0.246535 -0.097606 -0.239096 0.076388 0.022113 0.215800 0.132062 0.031456 0.022119 0.007626 0.132402 0.057781 -0.137495 -0.013572 -0.035170 0.027786 -0.016287 0.010479 0.107526 -0.232399 -0.025249 0.090537 0.178387 -0.204094 -0.009723 0.271129 -0.030784 -0.222512 0.088249 -0.230831 -0.218293 -0.276900 -0.092449 -0.083537 0.158887 0.013706 -0.115630 -0.111565 0.090909 0.181120 0.022843 0.208637 -0.029245 0.038282 0.076226 0.351881 0.146111 -0.027232 -0.022743 -0.024512 0.039410 -0.001100 -0.060889 
Poland 0.147173 -0.062991 0.088089 -0.122133 -0.122882 -0.017388 0.069580 -0.087979 0.061170 0.196506 0.169104 0.099262 -0.381578 -0.165139 0.121356 0.187902 0.280223 0.083287 0.034221 -0.005990 -0.162343 0.224210 0.036281 -0.032963 0.108729 -0.174780 -0.137543 0.023428 0.117934 0.301698 0.047052 -0.237096 -0.230812 0.179153 -0.138059 0.133669 0.266834 -0.166301 -0.090049 -0.112828 -0.054153 0.188906 -0.092873 -0.008751 -0.045806 0.151740 0.025954 0.260358 -0.105833 -0.274165 0.110593 0.040641 0.228406 0.171570 0.054361 0.015641 0.005779 0.127982 0.055049 -0.124050 -0.023952 -0.016774 0.025791 -0.000892 0.022492 0.103918 -0.273055 -0.030215 0.109512 0.177736 -0.201899 -0.003201 0.291304 -0.053655 -0.209169 0.099605 -0.243531 -0.233611 -0.298188 -0.080661 -0.054824 0.176594 -0.002653 -0.120238 -0.144531 0.071643 0.189287 0.048725 0.246575 -0.024010 0.014618 0.073238 0.377390 0.161415 -0.006772 -0.032408 0.008098 0.063346 0.027700 -0.054713 
Denmark 0.158179 -0.061998 0.074771 -0.134257 -0.109674 -0.009224 0.069153 -0.084535 0.054802 0.185556 0.171771 0.097739 -0.409049 -0.171267 0.114235 0.195127 0.278655 0.084953 0.018473 0.002473 -0.164165 0.230708 0.043419 -0.046687 0.092410 -0.178495 -0.133999 0.012563 0.116947 0.296478 0.054093 -0.241237 -0.245237 0.188719 -0.149211 0.138914 0.271212 -0.172502 -0.091402 -0.131403 -0.055263 0.187234 -0.079380 0.003037 -0.054201 0.154046 0.030497 0.281123 -0.121876 -0.293159 0.092433 0.059559 0.235665 0.158866 0.056336 0.028410 0.016359 0.132467 0.053204 -0.124405 -0.020924 -0.019298 0.025487 -0.019308 0.016667 0.110334 -0.286200 -0.014189 0.120206 0.171852 -0.199964 -0.009611 0.313210 -0.054593 -0.220317 0.115101 -0.241489 -0.245363 -0.319028 -0.080920 -0.076991 0.181393 -0.013846 -0.102386 -0.152052 0.080276 0.186416 0.056893 0.258585 -0.036698 0.007323 0.078748 0.393874 0.147864 -0.002853 -0.029304 0.004559 0.046445 0.022510 -0.073223 
Bulgaria 0.131862 -0.059409 0.074654 -0.122824 -0.090137 -0.022773 0.047443 -0.068074 0.045662 0.157947 0.143332 0.071725 -0.348290 -0.148668 0.104928 0.167650 0.231879 0.083779 0.024110 -0.012527 -0.131924 0.204968 0.026356 -0.017608 0.086374 -0.139573 -0.117816 0.007959 0.103013 0.265182 0.040725 -0.208579 -0.204218 0.169232 -0.141018 0.106037 0.244190 -0.135440 -0.093123 -0.105489 -0.049258 0.158689 -0.087734 0.003957 -0.051801 0.141018 0.019232 0.224829 -0.087597 -0.243904 0.078416 0.045583 0.186998 0.140052 0.029397 0.025446 0.019420 0.115005 0.040899 -0.107273 -0.013371 -0.009376 0.016520 0.000730 -0.000886 0.091369 -0.248708 -0.021424 0.109920 0.147484 -0.175679 -0.004242 0.251690 -0.046914 -0.194917 0.090204 -0.213136 -0.210907 -0.269682 -0.082224 -0.050731 0.143311 -0.015601 -0.096947 -0.123971 0.065175 0.160110 0.038513 0.213211 -0.012475 0.019579 0.057952 0.325570 0.135654 -0.003435 -0.021374 0.003774 0.059032 0.015532 -0.057187 
Ukraine 0.140274 -0.059870 0.082228 -0.132341 -0.109225 -0.020682 0.067533 -0.071036 0.059649 0.186080 0.161607 0.092529 -0.388037 -0.161139 0.104388 0.197039 0.271273 0.098800 0.025330 0.004526 -0.156133 0.217765 0.026415 -0.035309 0.095959 -0.162588 -0.132827 0.011768 0.123900 0.302704 0.050732 -0.229581 -0.230530 0.180499 -0.148848 0.121335 0.266377 -0.151940 -0.095219 -0.124198 -0.064207 0.185145 -0.084909 0.001223 -0.048630 0.151249 0.023701 0.258623 -0.114656 -0.263936 0.105028 0.055955 0.228158 0.156289 0.048522 0.015305 0.003360 0.127967 0.048958 -0.123102 -0.015547 -0.005631 0.009141 -0.010617 0.017619 0.110198 -0.270407 -0.023360 0.105625 0.169566 -0.202321 -0.017017 0.300507 -0.057112 -0.221400 0.099143 -0.239083 -0.240458 -0.307311 -0.086100 -0.054674 0.171021 -0.004109 -0.112963 -0.137624 0.067448 0.171075 0.054145 0.244392 -0.020556 0.005353 0.071488 0.372063 0.156015 -0.010490 -0.026372 -0.010455 0.050668 0.019438 -0.051976 
Macedonia 0.137924 -0.066034 0.075125 -0.137087 -0.117216 -0.016215 0.075681 -0.069409 0.061810 0.194381 0.173763 0.092810 -0.378734 -0.173303 0.109745 0.180531 0.272575 0.093166 0.039701 -0.009058 -0.145350 0.220787 0.029090 -0.033215 0.103913 -0.171073 -0.143937 0.011223 0.122801 0.302357 0.058411 -0.237829 -0.223899 0.178580 -0.155109 0.132956 0.275147 -0.148420 -0.085495 -0.121944 -0.059475 0.189397 -0.082910 -0.005378 -0.045847 0.159534 0.031693 0.250608 -0.116151 -0.281110 0.096797 0.050722 0.228357 0.156691 0.035811 0.026430 0.026494 0.132882 0.044600 -0.115974 -0.015626 -0.022355 0.015078 0.004296 0.020470 0.099062 -0.283410 -0.032176 0.102280 0.181813 -0.209300 -0.010583 0.299740 -0.045813 -0.221996 0.110796 -0.230042 -0.235889 -0.307632 -0.092668 -0.069418 0.168745 -0.014387 -0.100341 -0.134596 0.065907 0.185876 0.037537 0.234790 -0.018245 0.010371 0.064274 0.368271 0.145102 -0.017495 -0.030795 0.003452 0.047882 0.012853 -0.063911 
Croatia 0.154320 -0.061951 0.085917 -0.125604 -0.125303 -0.025163 0.072690 -0.067631 0.072868 0.201004 0.177319 0.102503 -0.405101 -0.170609 0.123490 0.196046 0.292626 0.103056 0.025384 -0.006569 -0.153448 0.238594 0.035300 -0.041818 0.084194 -0.177401 -0.138667 0.005740 0.127624 0.298542 0.037733 -0.235966 -0.239420 0.180537 -0.157708 0.124081 0.274003 -0.154842 -0.104875 -0.121138 -0.051095 0.191852 -0.093017 0.008285 -0.052684 0.154597 0.046222 0.266006 -0.121146 -0.275436 0.113526 0.042518 0.233957 0.174683 0.049369 0.012718 0.016986 0.147420 0.059371 -0.133818 -0.010009 -0.006990 0.015850 -0.010668 -0.000695 0.112458 -0.276351 -0.036121 0.116720 0.170689 -0.214753 -0.010651 0.291049 -0.050632 -0.215973 0.092292 -0.247597 -0.257505 -0.307277 -0.077830 -0.067835 0.181113 0.003465 -0.124155 -0.154310 0.076153 0.179346 0.054686 0.241416 -0.027890 0.005914 0.067705 0.367289 0.167258 -0.014870 -0.034901 0.003705 0.048738 0.016521 -0.067227 
Australia 0.111676 -0.060441 0.057541 -0.109344 -0.095982 -0.004535 0.071972 -0.062229 0.054815 0.151701 0.146874 0.077855 -0.317892 -0.144414 0.097322 0.159538 0.227331 0.081518 0.025878 -0.002397 -0.128774 0.188116 0.034292 -0.027722 0.074754 -0.128608 -0.104019 0.015362 0.099233 0.237653 0.041666 -0.188697 -0.189426 0.151773 -0.116498 0.111195 0.227538 -0.130290 -0.084003 -0.097680 -0.045500 0.156787 -0.069475 0.000996 -0.031974 0.121763 0.032227 0.206924 -0.093554 -0.225788 0.074054 0.032436 0.178747 0.127054 0.028423 0.016008 0.010483 0.105917 0.046960 -0.099732 -0.016344 -0.004250 0.013741 -0.007645 0.008352 0.089718 -0.221735 -0.025612 0.077789 0.140801 -0.170041 -0.003367 0.236891 -0.047964 -0.171666 0.086289 -0.203045 -0.194338 -0.252447 -0.073163 -0.050622 0.132540 -0.014696 -0.091249 -0.112746 0.056849 0.153353 0.040534 0.199149 -0.034453 0.020227 0.049325 0.297370 0.127464 -0.023158 -0.013797 0.001899 0.044029 0.004777 -0.055071 
Switzerland 0.126279 -0.059952 0.058978 -0.119389 -0.096588 -0.008545 0.076385 -0.064364 0.056389 0.155083 0.156464 0.082213 -0.340579 -0.151584 0.095181 0.165467 0.252264 0.086528 0.028075 -0.005148 -0.139167 0.198782 0.038769 -0.026934 0.086150 -0.150785 -0.119249 0.006117 0.105697 0.260414 0.032947 -0.203203 -0.211964 0.141035 -0.135924 0.119842 0.226767 -0.131468 -0.084034 -0.109768 -0.060044 0.162639 -0.075080 -0.003647 -0.051148 0.142921 0.029430 0.219379 -0.082583 -0.233422 0.084248 0.032174 0.200216 0.148836 0.038630 0.009800 0.011033 0.110567 0.046950 -0.108848 -0.022259 -0.010243 0.018303 -0.012094 0.017113 0.091117 -0.246801 -0.032919 0.097856 0.147946 -0.182778 -0.003876 0.259528 -0.049082 -0.200020 0.079294 -0.195865 -0.211628 -0.271673 -0.071873 -0.064886 0.137011 -0.003207 -0.102244 -0.125984 0.069446 0.162772 0.049460 0.203321 -0.024988 0.008331 0.052801 0.312185 0.130871 -0.024640 -0.029450 -0.011089 0.062452 0.011798 -0.054842 
Greece 0.125999 -0.056148 0.077504 -0.125654 -0.106789 -0.021232 0.078430 -0.068333 0.061989 0.176475 0.164263 0.079092 -0.363627 -0.155191 0.098844 0.170591 0.246445 0.078134 0.031526 -0.008842 -0.136756 0.211431 0.037767 -0.024796 0.098281 -0.159137 -0.116301 0.011348 0.119705 0.265964 0.035661 -0.224522 -0.208307 0.167044 -0.141175 0.124707 0.241271 -0.148938 -0.086910 -0.121232 -0.054859 0.170494 -0.073043 -0.007326 -0.048003 0.141363 0.036961 0.245960 -0.095336 -0.258170 0.084844 0.044657 0.210084 0.151770 0.031227 0.020613 0.022390 0.124627 0.036798 -0.119421 -0.015652 -0.022845 0.019450 -0.015295 0.013814 0.102332 -0.245641 -0.032048 0.106484 0.162398 -0.185131 -0.002368 0.272122 -0.037380 -0.199440 0.090877 -0.214556 -0.227196 -0.289682 -0.085219 -0.060068 0.152359 -0.015501 -0.113143 -0.141850 0.062770 0.154089 0.042723 0.223630 -0.032489 0.028710 0.064966 0.335071 0.146897 -0.009545 -0.023183 -0.006745 0.062147 0.009242 -0.056490 
Norway 0.125197 -0.058606 0.062784 -0.114132 -0.094504 -0.012059 0.066585 -0.058220 0.045354 0.162772 0.150648 0.079037 -0.336906 -0.137034 0.103454 0.166099 0.236809 0.072698 0.028329 -0.001267 -0.117960 0.191480 0.029046 -0.030969 0.082252 -0.143715 -0.117032 0.002094 0.097332 0.250753 0.048428 -0.204683 -0.194581 0.152294 -0.124691 0.111993 0.233173 -0.132921 -0.083340 -0.102818 -0.050609 0.154921 -0.077042 0.000325 -0.051431 0.138509 0.034543 0.228502 -0.100344 -0.225054 0.081098 0.037853 0.184106 0.140855 0.035411 0.023747 0.005927 0.113973 0.040222 -0.106934 -0.028463 -0.006433 0.010890 -0.004638 0.013875 0.092252 -0.236618 -0.027747 0.098022 0.150049 -0.171451 -0.001453 0.256922 -0.036648 -0.192232 0.084476 -0.195374 -0.205390 -0.260582 -0.074718 -0.053417 0.147773 -0.014810 -0.100432 -0.124542 0.059089 0.144312 0.041818 0.196092 -0.029311 0.011783 0.056000 0.319799 0.121620 -0.014469 -0.019669 -0.004232 0.055552 0.017382 -0.054990 
Spain 0.120105 -0.048931 0.066702 -0.117961 -0.099330 -0.007320 0.070024 -0.072569 0.062660 0.159805 0.157091 0.086555 -0.352906 -0.147584 0.099913 0.177802 0.248093 0.084384 0.023119 -0.000662 -0.135690 0.194901 0.027704 -0.033189 0.094612 -0.152253 -0.110135 0.007340 0.110966 0.265073 0.039741 -0.203966 -0.207927 0.145830 -0.121916 0.107676 0.228444 -0.129607 -0.082877 -0.101112 -0.067454 0.163190 -0.073554 -0.005266 -0.044925 0.126807 0.036265 0.221659 -0.087261 -0.240776 0.091932 0.033727 0.199726 0.161135 0.034223 0.009488 0.001884 0.103719 0.051400 -0.110608 -0.012677 -0.004810 0.004744 -0.003680 0.016175 0.096321 -0.233419 -0.026378 0.104461 0.155407 -0.183778 0.002242 0.252587 -0.053156 -0.182007 0.091303 -0.211994 -0.216127 -0.279341 -0.082207 -0.064210 0.148539 -0.018954 -0.097362 -0.125767 0.069671 0.158809 0.043394 0.200957 -0.020445 0.018978 0.061376 0.318206 0.128227 -0.023234 -0.019738 -0.011341 0.058001 0.016443 -0.049327 
France 0.125160 -0.065262 0.063586 -0.110720 -0.100396 -0.016643 0.076539 -0.057574 0.039948 0.163626 0.156153 0.075873 -0.324640 -0.138541 0.108880 0.172265 0.243575 0.065241 0.030638 0.007974 -0.135248 0.188200 0.034870 -0.024423 0.078747 -0.142445 -0.108755 0.000371 0.106487 0.264823 0.040299 -0.203904 -0.205021 0.150253 -0.133703 0.120337 0.226286 -0.139068 -0.084166 -0.111672 -0.046364 0.141174 -0.077954 0.008976 -0.052439 0.126063 0.026188 0.209998 -0.094424 -0.225205 0.079704 0.039443 0.193340 0.148920 0.041532 0.015747 0.016132 0.104223 0.050506 -0.095954 -0.026953 -0.016659 0.005560 -0.011068 0.003199 0.094255 -0.232980 -0.010482 0.098194 0.157327 -0.174001 0.000551 0.250638 -0.034200 -0.186682 0.086494 -0.198344 -0.214066 -0.266505 -0.063637 -0.052354 0.142282 -0.017621 -0.089272 -0.109576 0.070780 0.164015 0.047307 0.192189 -0.028996 0.018510 0.064053 0.317128 0.121814 -0.016092 -0.017029 -0.017683 0.060985 0.014139 -0.056674 
quick 0.136322 -0.063261 0.087615 -0.117642 -0.109976 -0.015102 0.104495 -0.067361 0.051626 0.178875 0.184115 0.101100 -0.408157 -0.161834 0.126623 0.192642 0.283144 0.104140 0.050979 -0.023088 -0.156982 0.230295 0.044424 -0.048320 0.103135 -0.179598 -0.142478 0.025291 0.128631 0.299001 0.058657 -0.224901 -0.247024 0.182021 -0.146692 0.130945 0.283930 -0.159358 -0.083570 -0.111631 -0.075005 0.174673 -0.092947 0.005959 -0.046007 0.164929 0.029669 0.266737 -0.111389 -0.276229 0.094510 0.045683 0.230704 0.166641 0.059676 0.016264 0.009503 0.148442 0.055760 -0.125616 -0.021691 -0.020054 0.031076 -0.015082 0.010469 0.119310 -0.294768 -0.018037 0.100740 0.188227 -0.216265 -0.014680 0.314696 -0.055801 -0.236500 0.102115 -0.258558 -0.240183 -0.311673 -0.092836 -0.077621 0.172406 -0.027778 -0.126070 -0.137435 0.083917 0.178224 0.037378 0.244511 -0.033647 0.033955 0.067017 0.375641 0.159758 -0.025150 -0.028836 -0.000587 0.067130 0.002900 -0.075255 
Italy 0.138829 -0.053056 0.074841 -0.120378 -0.097098 -0.023629 0.071473 -0.060966 0.054920 0.152980 0.150303 0.084590 -0.342185 -0.144354 0.114202 0.183152 0.245454 0.081258 0.021813 0.006135 -0.132935 0.209648 0.023719 -0.026256 0.081105 -0.141814 -0.123630 0.012844 0.101633 0.271061 0.039551 -0.215194 -0.198449 0.160703 -0.135682 0.124482 0.241352 -0.133613 -0.088539 -0.119424 -0.054261 0.155856 -0.088697 0.000461 -0.047656 0.141825 0.022209 0.234491 -0.087376 -0.241202 0.089302 0.040124 0.202619 0.138523 0.031535 0.016395 0.009261 0.105076 0.038723 -0.103902 -0.012365 -0.014949 0.010760 0.002710 0.001992 0.090135 -0.240376 -0.025557 0.091971 0.154806 -0.178586 -0.006009 0.259343 -0.051710 -0.189778 0.086016 -0.220587 -0.221198 -0.270757 -0.071860 -0.051462 0.141677 -0.003507 -0.107644 -0.128090 0.060354 0.172566 0.046434 0.218907 -0.015058 0.012810 0.060863 0.333988 0.139838 -0.013326 -0.019604 -0.005045 0.066499 0.023104 -0.055959 
Germany 0.123733 -0.052880 0.070978 -0.110324 -0.109025 -0.020956 0.076288 -0.062620 0.066323 0.161393 0.143763 0.079158 -0.344798 -0.142441 0.103859 0.171352 0.245624 0.078617 0.034802 0.008998 -0.140114 0.199637 0.026661 -0.029923 0.083753 -0.154024 -0.122159 0.018070 0.109613 0.259873 0.031754 -0.201119 -0.204729 0.163052 -0.137037 0.120933 0.245165 -0.136363 -0.091043 -0.106244 -0.050864 0.154306 -0.070972 -0.007417 -0.043324 0.145006 0.030526 0.221781 -0.089947 -0.241202 0.089898 0.046832 0.197959 0.140020 0.041277 0.012418 0.008462 0.106265 0.043428 -0.111872 -0.021079 -0.007378 0.005211 -0.010430 0.018150 0.101052 -0.244686 -0.028962 0.099482 0.143284 -0.187717 -0.005650 0.263428 -0.038227 -0.198075 0.081124 -0.210022 -0.222820 -0.270159 -0.071028 -0.049951 0.152641 -0.003439 -0.092433 -0.137784 0.066351 0.154609 0.042398 0.201479 -0.020234 0.004901 0.048622 0.330754 0.136426 -0.008312 -0.028098 -0.001121 0.056888 0.018694 -0.065309 
Egypt 0.133374 -0.059885 0.055790 -0.106697 -0.098005 -0.005780 0.066139 -0.061277 0.052605 0.152347 0.151067 0.087474 -0.345309 -0.154198 0.105565 0.165981 0.240879 0.076692 0.036819 0.005257 -0.141231 0.196134 0.024332 -0.036920 0.080511 -0.142684 -0.109758 0.012587 0.112082 0.254277 0.047908 -0.207854 -0.189889 0.149550 -0.132619 0.111047 0.235560 -0.142640 -0.075422 -0.106285 -0.052777 0.159958 -0.070181 -0.001323 -0.046298 0.123060 0.024535 0.214435 -0.098513 -0.235251 0.081969 0.040966 0.190122 0.136432 0.028246 0.020499 0.017496 0.101111 0.044529 -0.105712 -0.021238 -0.006782 0.020925 -0.004401 0.007181 0.083024 -0.241938 -0.025510 0.097073 0.153685 -0.165681 -0.006569 0.257323 -0.042554 -0.192989 0.079798 -0.202208 -0.203000 -0.270194 -0.074182 -0.050207 0.137450 -0.008486 -0.094751 -0.127714 0.063186 0.152424 0.037679 0.206466 -0.024816 0.023728 0.053937 0.317096 0.121815 -0.006195 -0.027866 -0.010736 0.060894 0.015434 -0.051560 
England 0.136933 -0.059718 0.073108 -0.107635 -0.091833 -0.013520 0.068112 -0.071064 0.048324 0.164739 0.155023 0.084097 -0.345972 -0.140064 0.110189 0.182913 0.247925 0.077610 0.029425 -0.011563 -0.141058 0.205305 0.033429 -0.028333 0.077119 -0.152415 -0.112663 0.007982 0.109254 0.263691 0.042082 -0.217058 -0.217187 0.149149 -0.123100 0.109249 0.234278 -0.131706 -0.081994 -0.108062 -0.053864 0.148023 -0.072922 0.000554 -0.049901 0.136126 0.031129 0.235125 -0.093135 -0.240771 0.097759 0.040798 0.194549 0.156881 0.046772 0.025209 0.011063 0.105193 0.038521 -0.101560 -0.010960 -0.012530 0.005863 -0.004813 0.009440 0.091458 -0.240625 -0.027041 0.091083 0.157741 -0.175774 -0.008370 0.252764 -0.048371 -0.193106 0.085769 -0.218944 -0.218392 -0.267240 -0.074847 -0.050943 0.141387 -0.006292 -0.114704 -0.136992 0.069059 0.168729 0.049863 0.202383 -0.021309 0.009370 0.055045 0.322860 0.140591 -0.019845 -0.028509 -0.002646 0.059071 0.021748 -0.052206 
China 0.128090 -0.055213 0.072972 -0.113306 -0.096087 -0.018939 0.075807 -0.058416 0.044293 0.155717 0.151332 0.071418 -0.338002 -0.137241 0.099306 0.177633 0.246118 0.078245 0.023501 0.006826 -0.126588 0.191965 0.029165 -0.026491 0.084239 -0.134996 -0.108676 0.012456 0.092849 0.253528 0.045829 -0.207064 -0.200913 0.145933 -0.135259 0.113231 0.231801 -0.135264 -0.079322 -0.102399 -0.064191 0.150908 -0.083343 0.004954 -0.037392 0.126921 0.034155 0.217401 -0.082273 -0.240886 0.084665 0.037166 0.192127 0.145102 0.037262 0.022876 0.006168 0.106772 0.051564 -0.104930 -0.017861 -0.012352 0.008336 -0.018227 0.017524 0.092708 -0.225156 -0.029168 0.081471 0.139329 -0.170138 -0.008942 0.245242 -0.032944 -0.193947 0.086722 -0.212196 -0.213825 -0.264157 -0.071802 -0.061791 0.138134 -0.022335 -0.105352 -0.128851 0.069338 0.150359 0.042140 0.207496 -0.023135 0.020899 0.054495 0.304305 0.138149 -0.016367 -0.026115 -0.003468 0.066250 0.012264 -0.063875 
dollar 0.164958 -0.072189 0.095482 -0.124320 -0.130019 -0.021087 0.089849 -0.078993 0.069460 0.191768 0.189661 0.088683 -0.422404 -0.169121 0.114357 0.195970 0.291948 0.100594 0.034497 -0.010513 -0.167103 0.230995 0.030975 -0.027155 0.107558 -0.187096 -0.130536 0.033306 0.118040 0.308157 0.050247 -0.251393 -0.257723 0.199097 -0.153528 0.128213 0.284963 -0.165495 -0.098491 -0.130923 -0.073907 0.193490 -0.093532 0.008004 -0.045948 0.173163 0.023483 0.285497 -0.122040 -0.286652 0.101707 0.055773 0.224924 0.170797 0.037027 0.017038 0.009256 0.145425 0.047738 -0.125310 -0.017875 -0.009400 0.023978 -0.005746 0.013412 0.105103 -0.291204 -0.030994 0.105062 0.195741 -0.227229 -0.010495 0.317143 -0.046640 -0.249729 0.103941 -0.264736 -0.262636 -0.328281 -0.092604 -0.062885 0.188024 -0.003121 -0.127075 -0.134972 0.073194 0.196112 0.055504 0.260521 -0.028921 0.018291 0.078839 0.398546 0.169883 -0.004086 -0.027498 0.001962 0.044263 0.024575 -0.069659 
Iran 0.149671 -0.063836 0.080954 -0.128376 -0.103353 -0.022555 0.066357 -0.083278 0.065997 0.188993 0.163938 0.085445 -0.374322 -0.162944 0.113146 0.179662 0.276708 0.079315 0.033193 -0.011766 -0.142674 0.216761 0.024572 -0.035947 0.093694 -0.172662 -0.130397 0.005831 0.119461 0.300660 0.039542 -0.241411 -0.237903 0.173388 -0.142549 0.116497 0.267477 -0.153781 -0.093071 -0.122668 -0.068318 0.172382 -0.083743 0.008783 -0.042679 0.152543 0.038903 0.251507 -0.109753 -0.259669 0.087765 0.050949 0.216003 0.151270 0.052266 0.010708 0.010608 0.125413 0.051928 -0.119505 -0.022069 -0.018266 0.019416 -0.002894 0.015615 0.109725 -0.259358 -0.021120 0.104144 0.171867 -0.192746 -0.003633 0.291081 -0.051559 -0.209195 0.095194 -0.222287 -0.238119 -0.289638 -0.079089 -0.064451 0.158594 -0.016051 -0.107076 -0.139461 0.074207 0.177237 0.035348 0.228059 -0.025943 0.018014 0.068221 0.363148 0.154609 -0.020111 -0.036085 -0.012306 0.050477 0.025046 -0.067723 
Vietnam 0.138781 -0.069525 0.072880 -0.124654 -0.120738 -0.016399 0.066934 -0.076442 0.060951 0.177148 0.170840 0.091294 -0.383177 -0.162094 0.117692 0.191730 0.267288 0.091421 0.023850 -0.002234 -0.153715 0.218050 0.040623 -0.028206 0.082262 -0.168671 -0.139097 0.017168 0.118563 0.284480 0.043827 -0.229994 -0.229806 0.181551 -0.139972 0.119567 0.267519 -0.155327 -0.096579 -0.113990 -0.065493 0.181475 -0.082423 0.005728 -0.049340 0.154594 0.026354 0.257493 -0.110408 -0.260810 0.108355 0.040120 0.210548 0.151729 0.048347 0.030578 0.007345 0.119809 0.044839 -0.120789 -0.028100 -0.022377 0.017032 -0.011204 0.014010 0.104417 -0.264256 -0.020719 0.099120 0.154893 -0.208970 -0.011338 0.291821 -0.052314 -0.214820 0.093207 -0.229064 -0.239019 -0.308430 -0.087183 -0.065075 0.165555 -0.003448 -0.114238 -0.138141 0.073204 0.173076 0.051374 0.236559 -0.020148 0.015506 0.065177 0.360222 0.154078 -0.020098 -0.031314 -0.000130 0.062881 0.026104 -0.062069 
Canada 0.138231 -0.061769 0.064829 -0.116361 -0.108732 -0.009472 0.070049 -0.057634 0.059737 0.171687 0.145128 0.085134 -0.338943 -0.142029 0.096841 0.167531 0.243424 0.068461 0.026418 -0.000880 -0.142178 0.199348 0.017908 -0.014100 0.089164 -0.145730 -0.118927 0.014571 0.111510 0.263978 0.053040 -0.206827 -0.202686 0.160574 -0.131580 0.108403 0.235778 -0.132657 -0.085438 -0.113703 -0.064447 0.155053 -0.077307 -0.004119 -0.040891 0.143847 0.034371 0.221311 -0.092194 -0.236621 0.098827 0.033896 0.195477 0.132461 0.029761 0.017558 0.010859 0.120410 0.050615 -0.107233 -0.012913 -0.011452 0.009480 -0.005670 0.017995 0.098427 -0.236044 -0.014951 0.080228 0.153897 -0.182907 -0.004498 0.255608 -0.039697 -0.178357 0.074330 -0.221421 -0.216228 -0.263112 -0.078796 -0.053842 0.137388 -0.016913 -0.092467 -0.131544 0.061343 0.167141 0.045190 0.203371 -0.028139 0.003233 0.057828 0.311535 0.129369 -0.009375 -0.029623 -0.001461 0.057497 0.013479 -0.045746 
Albania 0.133690 -0.063824 0.078283 -0.123931 -0.098193 -0.011652 0.065772 -0.072676 0.052687 0.166292 0.163900 0.078381 -0.352187 -0.159142 0.114573 0.183398 0.254465 0.077835 0.026547 0.003717 -0.144395 0.199587 0.023627 -0.024797 0.087552 -0.161343 -0.126319 0.007676 0.104866 0.271016 0.034097 -0.209871 -0.217777 0.165376 -0.135258 0.113785 0.245088 -0.137904 -0.083643 -0.105636 -0.050215 0.163235 -0.076674 -0.004935 -0.050618 0.145363 0.024135 0.232225 -0.101799 -0.249587 0.095279 0.042389 0.199463 0.160290 0.041575 0.018253 0.021759 0.115259 0.042090 -0.111311 -0.020759 -0.005775 0.006621 -0.010626 0.019276 0.088916 -0.252296 -0.022875 0.104969 0.158808 -0.184418 -0.006603 0.264299 -0.053046 -0.201875 0.097938 -0.216886 -0.230084 -0.272434 -0.079302 -0.070870 0.148637 -0.016062 -0.106538 -0.133436 0.074578 0.168924 0.043999 0.216858 -0.025113 0.007353 0.052508 0.334886 0.136060 -0.011465 -0.030239 -0.004198 0.053595 0.007968 -0.062500 
Chile 0.136220 -0.070585 0.081764 -0.120681 -0.104055 -0.012562 0.073746 -0.079378 0.054392 0.173697 0.162762 0.092122 -0.367914 -0.156964 0.108117 0.194242 0.256009 0.076153 0.020445 -0.002814 -0.138297 0.218150 0.028273 -0.020455 0.093361 -0.157127 -0.120814 0.008766 0.114210 0.280697 0.039775 -0.237493 -0.210663 0.164582 -0.132531 0.119437 0.255663 -0.155955 -0.079673 -0.112575 -0.050257 0.175748 -0.089353 0.008329 -0.047373 0.152962 0.032111 0.244389 -0.104392 -0.260863 0.091047 0.036968 0.217975 0.157689 0.035778 0.012597 0.016309 0.120617 0.054079 -0.115354 -0.023574 -0.005087 0.003225 -0.012882 0.015674 0.100709 -0.252553 -0.018308 0.114094 0.162085 -0.201860 -0.009793 0.281593 -0.048554 -0.198926 0.091925 -0.225961 -0.243230 -0.290429 -0.085267 -0.060293 0.157349 -0.003492 -0.117360 -0.142669 0.084329 0.177085 0.048297 0.229784 -0.029756 0.009210 0.060508 0.348970 0.144547 -0.016853 -0.018391 -0.008417 0.063482 0.015039 -0.049915 
Belarus 0.132629 -0.062935 0.074986 -0.110360 -0.102925 -0.021642 0.068260 -0.072046 0.047182 0.157538 0.149501 0.084207 -0.344678 -0.155440 0.103600 0.172594 0.257516 0.075929 0.036569 -0.005479 -0.142204 0.204477 0.037955 -0.029618 0.082018 -0.146577 -0.123928 0.016809 0.102836 0.269997 0.042770 -0.219447 -0.212192 0.155431 -0.138529 0.108544 0.240089 -0.139006 -0.085984 -0.108427 -0.057104 0.173005 -0.081443 -0.003436 -0.052179 0.149693 0.040321 0.241267 -0.097614 -0.241156 0.083893 0.040263 0.202649 0.142763 0.036787 0.023097 0.009884 0.110758 0.048345 -0.106418 -0.023018 -0.009174 0.019874 -0.001606 0.008502 0.096767 -0.238599 -0.017108 0.089540 0.163848 -0.178381 -0.016490 0.270016 -0.045496 -0.203387 0.082852 -0.212121 -0.222727 -0.279427 -0.074421 -0.060480 0.151836 -0.016606 -0.095539 -0.115877 0.065889 0.164658 0.042924 0.212749 -0.032653 0.022162 0.060425 0.327927 0.133283 -0.023560 -0.015014 -0.014992 0.048787 0.010523 -0.046818 
Austria 0.116969 -0.047074 0.069816 -0.101946 -0.093801 -0.011039 0.066875 -0.069333 0.042365 0.155625 0.142192 0.077758 -0.322998 -0.136516 0.092156 0.165930 0.229931 0.075281 0.037193 -0.003262 -0.124198 0.195057 0.025283 -0.029743 0.073916 -0.137478 -0.106458 0.007539 0.095475 0.252401 0.037667 -0.201137 -0.203401 0.152735 -0.129703 0.114810 0.232974 -0.136883 -0.083638 -0.101439 -0.047882 0.160257 -0.069705 -0.001775 -0.040230 0.125969 0.028152 0.220522 -0.099675 -0.232012 0.075022 0.037174 0.196202 0.139838 0.034056 0.014296 0.004433 0.108974 0.034088 -0.097526 -0.023432 -0.009301 0.016007 -0.018917 0.008742 0.088093 -0.222323 -0.023944 0.083519 0.140520 -0.171624 -0.006818 0.244503 -0.036311 -0.180729 0.089008 -0.200665 -0.204394 -0.262889 -0.078285 -0.053809 0.144323 -0.007465 -0.103744 -0.119874 0.071137 0.147495 0.045675 0.191612 -0.024679 0.020035 0.059768 0.302142 0.126829 -0.006926 -0.028125 -0.007390 0.045113 0.009410 -0.057725 
Georgia 0.131792 -0.053772 0.075714 -0.111558 -0.090168 -0.010337 0.076271 -0.084829 0.041929 0.173590 0.152765 0.078138 -0.353761 -0.152300 0.095937 0.163598 0.246189 0.072270 0.042955 0.000735 -0.131545 0.194131 0.034481 -0.022752 0.082367 -0.161221 -0.114229 0.016322 0.103380 0.266112 0.042243 -0.219920 -0.212911 0.161621 -0.133238 0.129930 0.244807 -0.146421 -0.086964 -0.110784 -0.052023 0.163325 -0.082194 0.007666 -0.049654 0.144776 0.039586 0.232447 -0.090851 -0.242019 0.078241 0.037492 0.208871 0.144965 0.032919 0.016776 0.005844 0.123681 0.051173 -0.127012 -0.008524 -0.015374 0.013439 -0.009811 0.014252 0.088029 -0.242483 -0.018012 0.092172 0.164852 -0.191161 -0.008839 0.261461 -0.048985 -0.197545 0.081226 -0.210386 -0.214709 -0.275345 -0.074430 -0.067229 0.144418 -0.004704 -0.117501 -0.128299 0.083811 0.176283 0.038018 0.216310 -0.033828 0.025134 0.051917 0.326158 0.141029 -0.025324 -0.024595 -0.007381 0.046139 0.000115 -0.052424 
Peru 0.128197 -0.054355 0.074188 -0.121807 -0.105665 -0.010690 0.084899 -0.065464 0.058951 0.167603 0.151170 0.088137 -0.362872 -0.147330 0.107526 0.182716 0.249032 0.070451 0.039037 -0.003890 -0.149733 0.201275 0.038447 -0.030928 0.091462 -0.149452 -0.116402 0.007354 0.112716 0.272615 0.040073 -0.226667 -0.217420 0.163258 -0.135373 0.120368 0.252010 -0.147847 -0.084334 -0.106276 -0.054605 0.163686 -0.076326 0.006025 -0.044477 0.136935 0.023672 0.238505 -0.091082 -0.238059 0.090933 0.035901 0.203966 0.143546 0.046247 0.026476 0.020068 0.111290 0.043274 -0.111554 -0.021914 -0.013672 0.006350 -0.006030 0.007144 0.096218 -0.240612 -0.028398 0.093961 0.162034 -0.183813 -0.001582 0.271951 -0.037246 -0.196846 0.088227 -0.221857 -0.221020 -0.287188 -0.087417 -0.066227 0.156373 -0.006141 -0.100623 -0.123386 0.077291 0.160079 0.052250 0.209609 -0.024901 0.012616 0.057581 0.343478 0.132499 -0.020896 -0.019454 -0.014294 0.055231 0.025697 -0.061401 
Slovakia 0.146836 -0.053514 0.074987 -0.123159 -0.110607 -0.021697 0.074411 -0.084660 0.054616 0.183709 0.170459 0.094518 -0.375221 -0.172244 0.114280 0.203267 0.269805 0.089477 0.025694 0.007996 -0.155136 0.230216 0.036777 -0.042433 0.098477 -0.158116 -0.133739 0.016666 0.114321 0.294373 0.046982 -0.235654 -0.230802 0.177680 -0.138851 0.122296 0.271287 -0.156735 -0.093171 -0.126382 -0.053618 0.185222 -0.093778 0.002387 -0.045041 0.157765 0.042835 0.251573 -0.096247 -0.260233 0.107067 0.044316 0.225138 0.171784 0.046294 0.025259 0.012567 0.133797 0.055384 -0.116152 -0.024279 -0.003787 0.019565 -0.004743 0.021497 0.102740 -0.263119 -0.024053 0.120442 0.167730 -0.204509 -0.004277 0.295425 -0.048302 -0.206618 0.105395 -0.239015 -0.234387 -0.291915 -0.091866 -0.062538 0.152873 -0.019852 -0.119033 -0.142590 0.079521 0.164340 0.060719 0.232655 -0.037356 0.027863 0.066800 0.367663 0.140613 -0.015767 -0.023085 -0.004017 0.051867 0.007451 -0.050951 
Ireland 0.131329 -0.069986 0.075420 -0.133959 -0.108534 -0.029493 0.069228 -0.072615 0.073773 0.189915 0.167936 0.082240 -0.393533 -0.174543 0.126452 0.195070 0.261201 0.088106 0.019016 0.010188 -0.156625 0.219925 0.031129 -0.023446 0.080784 -0.157154 -0.134962 0.001202 0.109470 0.298758 0.037779 -0.231077 -0.230408 0.177466 -0.147535 0.126757 0.269925 -0.151623 -0.101723 -0.122082 -0.048177 0.178954 -0.095921 0.000572 -0.058153 0.162812 0.024855 0.264129 -0.117877 -0.260785 0.110608 0.058678 0.222517 0.174779 0.045783 0.013980 0.011883 0.131303 0.044446 -0.117921 -0.009387 -0.006248 0.018179 -0.001352 0.021002 0.094366 -0.256030 -0.021235 0.115607 0.172565 -0.202033 -0.003107 0.293098 -0.058732 -0.208132 0.090063 -0.225676 -0.245207 -0.294208 -0.079310 -0.054765 0.154055 -0.021850 -0.111876 -0.142426 0.075176 0.173540 0.039563 0.238221 -0.033590 0.023488 0.060615 0.372271 0.159301 -0.004660 -0.032786 -0.005247 0.057766 0.028274 -0.061686 
Moldova 0.154228 -0.063630 0.081810 -0.142839 -0.117804 -0.014092 0.091245 -0.086919 0.074402 0.176778 0.174919 0.100178 -0.394186 -0.173809 0.130051 0.195182 0.290188 0.103463 0.040160 -0.007554 -0.162988 0.230331 0.039185 -0.028616 0.105505 -0.159697 -0.135437 0.005622 0.129149 0.303905 0.047517 -0.250926 -0.242501 0.177534 -0.161239 0.140653 0.279272 -0.154538 -0.095091 -0.123248 -0.057358 0.183142 -0.091990 -0.003922 -0.041919 0.155225 0.023651 0.262247 -0.100913 -0.288634 0.102304 0.052278 0.234725 0.166787 0.036189 0.031804 0.021009 0.128132 0.060183 -0.129683 -0.024058 -0.022202 0.023077 -0.007162 0.010409 0.097591 -0.286444 -0.015435 0.118385 0.184803 -0.201291 -0.016844 0.307949 -0.056213 -0.215004 0.110291 -0.256020 -0.262304 -0.322331 -0.078817 -0.074651 0.162359 0.000317 -0.118281 -0.153127 0.077931 0.179499 0.055261 0.244567 -0.022683 0.018659 0.067818 0.388366 0.165808 -0.017751 -0.035227 -0.002952 0.062397 0.027824 -0.063535 
Portugal 0.149325 -0.059521 0.078623 -0.106702 -0.102302 -0.019457 0.087148 -0.064540 0.047385 0.172907 0.167043 0.093645 -0.371241 -0.169208 0.121593 0.191704 0.252044 0.076298 0.038529 0.006629 -0.135431 0.213486 0.046223 -0.032232 0.092680 -0.163080 -0.126099 -0.004983 0.124292 0.287542 0.037835 -0.235113 -0.239356 0.162400 -0.152263 0.117153 0.265146 -0.137600 -0.088653 -0.121304 -0.065467 0.181933 -0.076600 0.006226 -0.038658 0.150014 0.033577 0.235399 -0.099502 -0.247552 0.108808 0.036600 0.207193 0.160603 0.052634 0.013679 0.011385 0.124499 0.048379 -0.121461 -0.021647 -0.004962 -0.001920 -0.016457 0.002406 0.104254 -0.265793 -0.014839 0.095324 0.168053 -0.190149 -0.001022 0.285062 -0.055343 -0.214963 0.078531 -0.228616 -0.244753 -0.290551 -0.076694 -0.066620 0.154363 -0.008605 -0.105388 -0.143355 0.070097 0.171059 0.049779 0.217606 -0.017465 0.029086 0.071703 0.365516 0.148515 -0.015793 -0.022915 -0.004222 0.049649 0.018414 -0.057896 
Malta 0.133146 -0.055100 0.073701 -0.113813 -0.098371 -0.020359 0.075604 -0.065860 0.063819 0.177500 0.163481 0.094326 -0.368347 -0.156811 0.104215 0.193702 0.262756 0.077138 0.031935 -0.013159 -0.152537 0.217683 0.037139 -0.027654 0.091491 -0.159418 -0.129787 0.008709 0.123947 0.279235 0.046830 -0.217440 -0.217290 0.178140 -0.131630 0.114561 0.254010 -0.137438 -0.094854 -0.108297 -0.056158 0.172239 -0.083053 -0.004267 -0.051570 0.144449 0.039880 0.238729 -0.094470 -0.255040 0.085001 0.034840 0.217707 0.151545 0.037193 0.029841 0.003887 0.131085 0.055302 -0.116270 -0.020938 -0.021249 0.013466 -0.015027 0.007061 0.106404 -0.253551 -0.019772 0.107675 0.166588 -0.200939 -0.013936 0.274900 -0.048587 -0.214904 0.098480 -0.232654 -0.240288 -0.292335 -0.076403 -0.067230 0.171685 -0.013970 -0.116238 -0.126770 0.076891 0.169908 0.045937 0.226225 -0.032277 0.025312 0.066088 0.359069 0.150214 -0.013799 -0.035034 -0.006310 0.062443 0.014209 -0.056282 
Tennessee 0.134446 -0.058730 0.079681 -0.112893 -0.096576 -0.020150 0.095386 -0.082967 0.022287 0.180587 0.162170 0.082815 -0.365894 -0.165927 0.093187 0.189306 0.269248 0.071856 0.044665 -0.009122 -0.137123 0.205375 0.046697 -0.044977 0.092212 -0.171021 -0.112963 0.018636 0.090454 0.268231 0.041401 -0.217875 -0.212244 0.163326 -0.128446 0.131569 0.260451 -0.146226 -0.093236 -0.121447 -0.067872 0.176753 -0.078492 -0.002961 -0.051026 0.148282 0.038048 0.258862 -0.119902 -0.252228 0.073410 0.027041 0.218410 0.140665 0.037875 0.006073 -0.003342 0.134140 0.053598 -0.138824 -0.010048 -0.021736 0.039187 -0.014845 0.014021 0.103070 -0.240461 -0.009546 0.093775 0.168219 -0.214375 0.001703 0.291820 -0.038009 -0.239875 0.095276 -0.223366 -0.222807 -0.283818 -0.075693 -0.080788 0.156195 0.013514 -0.116749 -0.129410 0.077559 0.185059 0.030689 0.226765 -0.027705 0.032010 0.065127 0.353508 0.155731 -0.039145 -0.028649 -0.023314 0.031107 -0.007609 -0.065045 
Massachusetts 0.133850 -0.076459 0.073644 -0.110202 -0.091866 -0.008134 0.094732 -0.086338 0.026914 0.170417 0.161407 0.065874 -0.360791 -0.164130 0.096480 0.174274 0.241493 0.083000 0.063296 -0.011042 -0.134781 0.217217 0.039618 -0.044887 0.077159 -0.152252 -0.104786 0.017943 0.090157 0.271273 0.043541 -0.229046 -0.214694 0.163071 -0.117806 0.138099 0.238094 -0.145145 -0.082456 -0.103654 -0.069179 0.189897 -0.082650 -0.006559 -0.031199 0.160583 0.036193 0.236571 -0.113791 -0.229100 0.086580 0.037789 0.211371 0.145791 0.020427 0.016036 0.011307 0.132390 0.043967 -0.132431 0.001039 -0.027901 0.039440 -0.014308 0.015477 0.110794 -0.227133 -0.023168 0.088300 0.171917 -0.195925 -0.009787 0.277406 -0.046492 -0.228962 0.078931 -0.236031 -0.241140 -0.269019 -0.079965 -0.084753 0.150090 -0.000397 -0.126536 -0.121469 0.078530 0.186156 0.030722 0.214333 -0.037546 0.042442 0.069928 0.357717 0.144045 -0.039410 -0.009526 -0.016651 0.037588 0.002208 -0.066235 
Kentucky 0.148261 -0.065849 0.082020 -0.129427 -0.117471 -0.014347 0.089468 -0.093812 0.026592 0.173609 0.174213 0.073478 -0.394438 -0.171406 0.103421 0.198470 0.259386 0.092910 0.068205 -0.001842 -0.143830 0.226595 0.045360 -0.040807 0.097830 -0.166105 -0.105211 0.028084 0.112507 0.293126 0.059384 -0.235931 -0.233910 0.171156 -0.145943 0.130051 0.270460 -0.166173 -0.105457 -0.115517 -0.079381 0.189198 -0.096152 -0.000078 -0.044135 0.177349 0.051980 0.259172 -0.122008 -0.248788 0.083805 0.037540 0.230979 0.142979 0.035182 0.003674 0.005235 0.138391 0.045716 -0.133888 -0.004318 -0.035187 0.036855 -0.007426 0.027852 0.100011 -0.251290 -0.017060 0.104279 0.191343 -0.219522 -0.004379 0.307880 -0.048745 -0.239343 0.094417 -0.239383 -0.236896 -0.278418 -0.088402 -0.086604 0.179595 0.008096 -0.124982 -0.131205 0.087929 0.198996 0.041477 0.233174 -0.034970 0.024200 0.070416 0.363468 0.148146 -0.036676 -0.020928 -0.022984 0.033050 0.002628 -0.066540 
Nevada 0.140001 -0.068008 0.073431 -0.104334 -0.098730 -0.006403 0.075946 -0.091068 0.015237 0.155217 0.158608 0.060953 -0.353751 -0.141831 0.100544 0.167134 0.245410 0.069724 0.065621 0.006167 -0.120093 0.185175 0.048882 -0.044462 0.084052 -0.165266 -0.107558 0.026814 0.089108 0.265817 0.040263 -0.214428 -0.211706 0.160738 -0.119554 0.123492 0.242160 -0.143472 -0.088370 -0.111753 -0.064675 0.173077 -0.075812 0.004746 -0.037912 0.150698 0.031261 0.234542 -0.100223 -0.222225 0.079017 0.024052 0.201769 0.131592 0.038272 0.005768 0.010263 0.126570 0.052830 -0.138564 -0.002163 -0.025375 0.027855 -0.005594 0.014127 0.102189 -0.230938 -0.021320 0.090175 0.168935 -0.201145 -0.002733 0.278313 -0.039481 -0.210465 0.089656 -0.214632 -0.206921 -0.268993 -0.071754 -0.064106 0.149853 0.011796 -0.108101 -0.116719 0.082769 0.169817 0.031135 0.203454 -0.035712 0.036373 0.070103 0.335350 0.145607 -0.036720 -0.022316 -0.017501 0.039187 0.001677 -0.055405 
Pennsylvania 0.134705 -0.067087 0.083871 -0.109661 -0.100125 -0.016969 0.080701 -0.095603 0.015722 0.162523 0.159913 0.076967 -0.375193 -0.155386 0.103042 0.184121 0.263623 0.082121 0.057309 -0.008688 -0.126802 0.204327 0.048268 -0.035408 0.091628 -0.170878 -0.112005 0.022951 0.108289 0.266746 0.037094 -0.219871 -0.218901 0.172010 -0.131635 0.131948 0.254908 -0.139588 -0.098944 -0.101529 -0.067956 0.177930 -0.082199 0.010721 -0.046120 0.162196 0.053081 0.261596 -0.116185 -0.248493 0.075472 0.026499 0.217003 0.145703 0.042959 0.011527 0.000713 0.119163 0.048175 -0.129769 -0.015701 -0.017928 0.028527 -0.017337 0.011509 0.096607 -0.230864 -0.012983 0.091122 0.175915 -0.199099 0.006656 0.300479 -0.042440 -0.229146 0.087514 -0.222000 -0.216915 -0.270331 -0.082594 -0.077794 0.170656 0.003979 -0.114730 -0.128492 0.085256 0.181095 0.039989 0.212302 -0.026658 0.034027 0.072094 0.358471 0.139876 -0.020393 -0.018544 -0.024840 0.039892 -0.013805 -0.065093 
Wisconsin 0.128449 -0.063256 0.086120 -0.114811 -0.101944 -0.021412 0.088320 -0.088690 0.020006 0.168318 0.159221 0.071563 -0.369900 -0.156108 0.100947 0.173332 0.261343 0.072806 0.066274 0.005376 -0.135699 0.205851 0.048590 -0.042066 0.081554 -0.162766 -0.114863 0.015585 0.098926 0.259663 0.049284 -0.222844 -0.207068 0.175132 -0.128555 0.134971 0.240073 -0.142312 -0.090610 -0.112572 -0.061039 0.172082 -0.087495 0.005489 -0.040777 0.154882 0.043671 0.236663 -0.104292 -0.237887 0.087326 0.026658 0.214996 0.157424 0.028838 0.016833 0.008630 0.125462 0.059438 -0.144033 -0.009365 -0.032961 0.035851 -0.021015 0.022681 0.108547 -0.235335 -0.016554 0.091297 0.183642 -0.198766 0.006190 0.285263 -0.039380 -0.213303 0.078969 -0.231232 -0.219511 -0.272035 -0.086448 -0.074601 0.145812 0.002889 -0.113694 -0.111702 0.077792 0.173087 0.028064 0.204667 -0.037142 0.032332 0.065062 0.354164 0.139307 -0.028797 -0.017831 -0.018038 0.040042 -0.006724 -0.071349 
slowing 0.115861 -0.067749 0.067045 -0.097240 -0.106064 -0.015217 0.079235 -0.071346 0.029328 0.144492 0.142388 0.079361 -0.322381 -0.128892 0.080474 0.158426 0.240746 0.082825 0.026084 -0.008007 -0.110511 0.177080 0.028053 -0.032130 0.074970 -0.124863 -0.098881 0.018999 0.101801 0.231045 0.032737 -0.173279 -0.201963 0.131691 -0.101503 0.098038 0.216106 -0.126231 -0.076015 -0.109359 -0.048360 0.149788 -0.077808 0.008251 -0.045805 0.131670 0.023263 0.228550 -0.107628 -0.223882 0.068961 0.041364 0.182309 0.129653 0.027359 0.000253 0.007919 0.107239 0.040934 -0.106540 -0.015898 -0.010916 0.003668 -0.020218 0.020831 0.091988 -0.210025 -0.007959 0.071429 0.150658 -0.182071 -0.011463 0.249754 -0.033612 -0.191980 0.088719 -0.205996 -0.181920 -0.258689 -0.073740 -0.062569 0.136632 -0.014917 -0.087500 -0.099473 0.055698 0.145056 0.030715 0.192711 -0.020101 0.015555 0.064382 0.305835 0.130237 0.002918 0.000534 0.000807 0.042718 0.012711 -0.054987 
sitting 0.120629 -0.071126 0.061537 -0.107901 -0.099124 -0.025433 0.082904 -0.064778 0.036363 0.153234 0.156411 0.072145 -0.326574 -0.135564 0.092127 0.171002 0.237304 0.086296 0.038728 -0.010466 -0.114909 0.173006 0.025704 -0.037795 0.080340 -0.135570 -0.118353 0.019728 0.106987 0.252394 0.036190 -0.182903 -0.204537 0.148716 -0.120878 0.105665 0.224216 -0.137633 -0.090637 -0.111251 -0.054658 0.170052 -0.081105 0.002949 -0.044982 0.142968 0.030607 0.233883 -0.113641 -0.228081 0.078305 0.045248 0.187699 0.135255 0.037874 -0.000100 0.024464 0.109071 0.040122 -0.113959 -0.015674 -0.019749 0.006212 -0.016035 0.005373 0.094538 -0.215531 -0.014165 0.077825 0.150596 -0.186925 -0.010213 0.261919 -0.040566 -0.199773 0.091326 -0.202640 -0.191650 -0.258865 -0.080117 -0.068655 0.129855 -0.004215 -0.089608 -0.093286 0.051498 0.152540 0.030134 0.195832 -0.035906 0.023389 0.057815 0.320864 0.123158 -0.008555 -0.005002 -0.007753 0.056798 0.015897 -0.058582 
writing 0.130040 -0.058718 0.069077 -0.105231 -0.111742 -0.020474 0.086196 -0.063914 0.038477 0.163034 0.159841 0.075769 -0.348977 -0.134030 0.095706 0.160276 0.248001 0.092076 0.040388 -0.011990 -0.125004 0.185382 0.029211 -0.036030 0.089141 -0.136414 -0.112284 0.021828 0.101322 0.265103 0.024719 -0.189684 -0.203167 0.148864 -0.116424 0.109096 0.228059 -0.144288 -0.087348 -0.102179 -0.061719 0.167263 -0.076771 0.001792 -0.046418 0.148194 0.027290 0.241430 -0.112793 -0.240902 0.084648 0.032771 0.198456 0.150314 0.034797 0.002553 0.005973 0.116120 0.049932 -0.107445 -0.021945 -0.008177 0.009336 -0.012661 0.019674 0.096372 -0.215173 -0.017090 0.086401 0.163940 -0.198115 -0.012138 0.269754 -0.047434 -0.191500 0.085545 -0.220054 -0.197090 -0.261541 -0.073331 -0.055361 0.142433 -0.007237 -0.106004 -0.111604 0.067599 0.156599 0.032354 0.206046 -0.032368 0.025355 0.057637 0.326952 0.126566 -0.002800 -0.005081 -0.009490 0.056295 0.009627 -0.070937 
swimming 0.116230 -0.072617 0.062229 -0.099427 -0.096368 -0.015234 0.089126 -0.065545 0.042209 0.157010 0.148085 0.066041 -0.324450 -0.130513 0.078768 0.167112 0.244502 0.093182 0.045091 0.000351 -0.114521 0.177615 0.031028 -0.042661 0.077148 -0.135921 -0.105624 0.026074 0.101761 0.249347 0.034003 -0.179385 -0.196711 0.142583 -0.108841 0.093538 0.215275 -0.126229 -0.077163 -0.108350 -0.048268 0.163746 -0.076590 0.009215 -0.038594 0.138206 0.026084 0.226942 -0.107337 -0.225244 0.084222 0.041057 0.178062 0.142505 0.031200 -0.002414 0.007867 0.106054 0.031193 -0.099873 -0.013011 -0.005875 0.001048 -0.018309 0.010907 0.090368 -0.214787 -0.022232 0.072097 0.156518 -0.187213 -0.007453 0.247935 -0.042453 -0.194539 0.086352 -0.213051 -0.202899 -0.260544 -0.070491 -0.053340 0.140503 -0.014541 -0.095866 -0.097717 0.056689 0.139143 0.031877 0.194629 -0.029245 0.023908 0.060511 0.308629 0.123753 -0.007590 0.002743 -0.010289 0.048788 0.016312 -0.066917 
singing 0.119207 -0.062512 0.062240 -0.107037 -0.096198 -0.017705 0.082752 -0.056644 0.039619 0.151358 0.149100 0.069780 -0.321430 -0.134629 0.088660 0.165632 0.229025 0.079773 0.035450 -0.004929 -0.108351 0.171391 0.026267 -0.038067 0.081373 -0.131037 -0.108076 0.022215 0.106423 0.240100 0.026215 -0.175867 -0.197337 0.137296 -0.123038 0.098523 0.215519 -0.127608 -0.091192 -0.105801 -0.050450 0.167737 -0.076316 0.000854 -0.045357 0.132965 0.027882 0.221087 -0.103197 -0.220084 0.069873 0.042436 0.184795 0.142362 0.028023 0.001892 0.016948 0.097721 0.041478 -0.105117 -0.019460 -0.008568 0.000579 -0.025380 0.011995 0.087895 -0.206957 -0.019030 0.080660 0.156647 -0.184033 -0.014216 0.251591 -0.044783 -0.186499 0.077277 -0.209061 -0.198803 -0.261247 -0.077483 -0.064264 0.125717 -0.011256 -0.101703 -0.109328 0.055051 0.137001 0.023019 0.193015 -0.034835 0.025842 0.065535 0.308325 0.119472 -0.008471 0.000105 -0.002239 0.057308 0.015770 -0.064631 
walking 0.114905 -0.059852 0.059171 -0.101957 -0.092781 -0.022560 0.080419 -0.059823 0.027554 0.141250 0.136740 0.074940 -0.317522 -0.133296 0.083245 0.162468 0.234890 0.083121 0.031614 0.003656 -0.109546 0.180104 0.029657 -0.036767 0.065055 -0.135319 -0.105675 0.025780 0.106899 0.248634 0.030083 -0.173609 -0.199917 0.133410 -0.111320 0.092621 0.208065 -0.122012 -0.082987 -0.106279 -0.059190 0.160103 -0.077984 -0.000832 -0.037265 0.131207 0.037808 0.228399 -0.106459 -0.221178 0.080186 0.034605 0.182821 0.137310 0.031907 -0.000116 0.005878 0.098357 0.033127 -0.112675 -0.024295 -0.004871 0.008157 -0.024798 0.015089 0.087260 -0.202586 -0.011804 0.073265 0.147200 -0.181386 -0.011888 0.238838 -0.043769 -0.189889 0.075309 -0.204881 -0.201466 -0.245151 -0.079965 -0.064200 0.131833 -0.015247 -0.094805 -0.100191 0.051151 0.138676 0.029487 0.190903 -0.036041 0.016018 0.062114 0.303743 0.125359 -0.009382 -0.002614 -0.005300 0.050781 0.007634 -0.051496 
thinking 0.120207 -0.059216 0.070852 -0.101909 -0.106143 -0.022223 0.089392 -0.065161 0.034441 0.149294 0.143343 0.075218 -0.315698 -0.119699 0.080824 0.154834 0.230998 0.082838 0.031708 0.000887 -0.120048 0.174782 0.024844 -0.036113 0.077965 -0.139541 -0.100021 0.024007 0.099049 0.245420 0.029689 -0.184075 -0.196481 0.134316 -0.111046 0.098724 0.211877 -0.132074 -0.075415 -0.098687 -0.054259 0.148885 -0.071454 0.005751 -0.033671 0.132777 0.031437 0.218161 -0.105311 -0.217037 0.071903 0.040982 0.182640 0.130513 0.030025 0.003282 0.012897 0.101421 0.043677 -0.097109 -0.023213 -0.010878 -0.000202 -0.027214 0.017674 0.081250 -0.206972 -0.020932 0.072763 0.141148 -0.183025 -0.007388 0.243848 -0.042590 -0.189044 0.074001 -0.201082 -0.191305 -0.258723 -0.068979 -0.064131 0.134078 -0.008944 -0.088704 -0.094251 0.054307 0.144624 0.022564 0.201634 -0.026082 0.016638 0.057551 0.304579 0.122921 -0.011199 -0.012961 -0.007625 0.049960 0.011450 -0.055433 
seeing 0.137044 -0.070719 0.079197 -0.115500 -0.113252 -0.022401 0.094255 -0.067209 0.050307 0.175036 0.172724 0.082802 -0.370164 -0.148382 0.098045 0.175910 0.261500 0.096372 0.043479 0.002908 -0.129459 0.198626 0.030134 -0.032275 0.079400 -0.143969 -0.127931 0.023648 0.121528 0.276100 0.030465 -0.214562 -0.213826 0.154299 -0.135220 0.110820 0.251362 -0.153091 -0.093532 -0.115981 -0.055947 0.182771 -0.094436 0.006212 -0.043903 0.158276 0.045252 0.243586 -0.120312 -0.263947 0.092739 0.049522 0.205066 0.153098 0.042786 0.012512 0.016848 0.113098 0.043532 -0.125379 -0.018260 -0.019900 0.008654 -0.029525 0.008530 0.092807 -0.238464 -0.019217 0.090146 0.177752 -0.201327 -0.004030 0.280217 -0.046674 -0.208368 0.100799 -0.230638 -0.226611 -0.301793 -0.092903 -0.064598 0.158013 -0.016592 -0.113082 -0.111407 0.070212 0.160749 0.033218 0.227912 -0.035779 0.018000 0.065133 0.348663 0.136686 -0.015817 -0.012866 0.000444 0.054651 0.009272 -0.071991 
screaming 0.139670 -0.074320 0.079972 -0.115758 -0.117802 -0.013897 0.098801 -0.073968 0.033905 0.161357 0.160779 0.080148 -0.362228 -0.141977 0.096847 0.168564 0.262253 0.085017 0.046341 -0.016345 -0.122146 0.185272 0.044868 -0.038510 0.075064 -0.150614 -0.111466 0.026985 0.107900 0.262569 0.035132 -0.202186 -0.220604 0.153938 -0.127989 0.109593 0.238736 -0.147948 -0.087530 -0.120634 -0.058184 0.176600 -0.076182 -0.000402 -0.041844 0.149086 0.026230 0.239010 -0.113330 -0.249409 0.075292 0.037560 0.195278 0.158925 0.024169 -0.001505 0.024354 0.111115 0.048700 -0.109236 -0.016815 -0.001631 0.010395 -0.031359 0.016421 0.099728 -0.227788 -0.023716 0.088704 0.164423 -0.204181 -0.004219 0.281042 -0.048303 -0.204452 0.081938 -0.230486 -0.207264 -0.284637 -0.085416 -0.065164 0.145092 -0.018405 -0.106090 -0.108793 0.063527 0.163511 0.028056 0.220835 -0.039182 0.016637 0.075770 0.337540 0.136866 -0.016513 -0.011227 -0.010220 0.049050 0.003494 -0.059389 
dancing 0.123396 -0.071030 0.075222 -0.116375 -0.108507 -0.012743 0.092072 -0.067164 0.032653 0.158632 0.148504 0.068011 -0.348593 -0.140565 0.095649 0.161818 0.258140 0.094775 0.046064 -0.006691 -0.117466 0.187613 0.031637 -0.038923 0.071918 -0.136326 -0.121001 0.020770 0.108852 0.256866 0.031954 -0.193593 -0.204433 0.144377 -0.128132 0.101733 0.237745 -0.139838 -0.085888 -0.118440 -0.054922 0.166730 -0.081093 -0.001499 -0.045391 0.153525 0.035839 0.244954 -0.109148 -0.244936 0.081270 0.050757 0.206490 0.152755 0.040928 -0.004382 0.020209 0.120667 0.048903 -0.115315 -0.032183 -0.004230 -0.003374 -0.015756 0.005673 0.096657 -0.223716 -0.021933 0.080016 0.163021 -0.201114 -0.017153 0.265053 -0.034202 -0.195873 0.087006 -0.216597 -0.210666 -0.279682 -0.084557 -0.058243 0.150009 -0.005838 -0.093010 -0.114559 0.051554 0.147655 0.026575 0.210840 -0.022955 0.012959 0.056807 0.333087 0.128611 -0.013704 -0.012710 0.002151 0.042417 0.002870 -0.057692 
saying 0.122426 -0.066677 0.063696 -0.115313 -0.106876 -0.021961 0.094121 -0.060367 0.044581 0.160877 0.152759 0.081365 -0.347503 -0.134264 0.097596 0.177569 0.246481 0.097208 0.040056 -0.001890 -0.125718 0.193835 0.037243 -0.038652 0.082096 -0.146870 -0.118858 0.032014 0.108163 0.259090 0.027932 -0.193219 -0.209592 0.150881 -0.120269 0.113750 0.230822 -0.142131 -0.079387 -0.106939 -0.064804 0.170004 -0.076540 0.005887 -0.050041 0.140402 0.026691 0.234484 -0.110845 -0.236597 0.078602 0.038910 0.197292 0.143551 0.030830 0.010261 0.013145 0.111518 0.048074 -0.116655 -0.027152 -0.015807 0.013469 -0.018529 0.012141 0.087842 -0.223043 -0.021312 0.076409 0.157919 -0.193469 -0.010755 0.265044 -0.038658 -0.208679 0.093925 -0.214802 -0.206069 -0.278472 -0.085380 -0.062202 0.138663 -0.017764 -0.106648 -0.107818 0.062054 0.149426 0.038847 0.205183 -0.032498 0.023618 0.068449 0.335531 0.128050 -0.014695 -0.008684 -0.007337 0.052243 0.009918 -0.053840 
running 0.125697 -0.075638 0.080591 -0.113179 -0.105857 -0.023026 0.098811 -0.072454 0.047214 0.153275 0.164164 0.078891 -0.364222 -0.137932 0.094802 0.177690 0.259581 0.099354 0.039394 0.001478 -0.117825 0.190503 0.030000 -0.048576 0.082475 -0.143479 -0.128060 0.018099 0.105223 0.270660 0.032347 -0.198516 -0.217405 0.159882 -0.122086 0.109646 0.227650 -0.137030 -0.094397 -0.117274 -0.059316 0.170796 -0.073679 0.011141 -0.047827 0.160266 0.036539 0.242710 -0.116677 -0.242344 0.082482 0.044824 0.209459 0.147333 0.031576 -0.000814 0.016570 0.112374 0.039688 -0.119160 -0.028831 -0.021771 0.001945 -0.028083 0.013029 0.088481 -0.223369 -0.017920 0.085445 0.159558 -0.201835 -0.011788 0.274816 -0.031630 -0.203360 0.089673 -0.233933 -0.203433 -0.287461 -0.085134 -0.058067 0.145245 -0.015276 -0.106737 -0.103604 0.061458 0.153768 0.031940 0.214797 -0.028694 0.019814 0.067983 0.333043 0.144039 -0.007967 -0.008185 -0.004971 0.046039 0.016684 -0.070239 
reading 0.106799 -0.065025 0.072242 -0.093647 -0.093683 -0.015345 0.088694 -0.060616 0.034065 0.146440 0.137699 0.071401 -0.321357 -0.129538 0.079792 0.151412 0.234604 0.083589 0.036772 0.001021 -0.108978 0.167323 0.037824 -0.037959 0.068441 -0.124600 -0.103985 0.030787 0.104015 0.231702 0.019736 -0.166755 -0.187329 0.131824 -0.106635 0.096674 0.208657 -0.130645 -0.077600 -0.094932 -0.054991 0.151949 -0.067245 -0.001933 -0.040026 0.135064 0.036427 0.221122 -0.110217 -0.217655 0.069791 0.044756 0.182192 0.135017 0.020650 0.000336 0.012377 0.096557 0.033030 -0.099631 -0.022563 -0.013779 -0.004426 -0.026603 0.011951 0.093195 -0.199635 -0.015493 0.074772 0.145201 -0.183053 -0.013026 0.249963 -0.030065 -0.184325 0.072137 -0.199421 -0.182988 -0.252833 -0.072967 -0.061445 0.136236 -0.008131 -0.100307 -0.090053 0.050696 0.140764 0.031132 0.189376 -0.027112 0.016862 0.062620 0.300961 0.127878 -0.007938 -0.005436 -0.014597 0.046451 0.011843 -0.063631 
read 0.127372 -0.059263 0.073269 -0.103384 -0.098942 -0.022365 0.079095 -0.067817 0.031950 0.154386 0.137937 0.075078 -0.326685 -0.131153 0.093034 0.163722 0.241850 0.089101 0.042425 -0.007734 -0.108747 0.180418 0.033248 -0.030404 0.068401 -0.137039 -0.106317 0.017808 0.106261 0.250750 0.024344 -0.180639 -0.201612 0.142034 -0.116308 0.110555 0.218262 -0.135561 -0.085625 -0.101040 -0.051667 0.167027 -0.076318 -0.002145 -0.036441 0.141345 0.028364 0.225278 -0.109341 -0.218177 0.078787 0.036305 0.181170 0.141812 0.037650 0.009165 0.020776 0.108209 0.033923 -0.111345 -0.013791 -0.017035 0.005448 -0.018600 0.009546 0.085728 -0.212441 -0.018942 0.074046 0.148760 -0.183507 -0.009712 0.248800 -0.037940 -0.189700 0.083665 -0.212360 -0.190435 -0.261586 -0.073189 -0.059146 0.125552 -0.017880 -0.094212 -0.098835 0.059423 0.149819 0.032071 0.194494 -0.025654 0.020336 0.060989 0.313139 0.122383 -0.011355 -0.013224 0.000929 0.051180 0.005650 -0.060291 
predicting 0.128500 -0.061467 0.079170 -0.111363 -0.104638 -0.025135 0.097730 -0.064500 0.046013 0.166352 0.162678 0.071606 -0.347429 -0.149431 0.105469 0.165313 0.249681 0.085144 0.046461 0.004186 -0.119852 0.191767 0.029775 -0.042796 0.081586 -0.139142 -0.112114 0.023829 0.102631 0.256514 0.030254 -0.200853 -0.219744 0.155189 -0.122143 0.101566 0.240364 -0.143671 -0.079733 -0.119744 -0.061026 0.173015 -0.089573 0.014211 -0.048886 0.151736 0.033301 0.233942 -0.109403 -0.241781 0.091147 0.043899 0.205178 0.150144 0.040450 0.002007 0.018388 0.116691 0.045586 -0.108422 -0.016446 -0.015919 -0.000018 -0.028785 0.010599 0.100641 -0.227338 -0.026781 0.083775 0.167556 -0.196043 -0.008001 0.275303 -0.049995 -0.194045 0.081580 -0.220908 -0.215052 -0.284255 -0.084933 -0.070514 0.153905 -0.019785 -0.106988 -0.111510 0.069807 0.160372 0.033778 0.216544 -0.022223 0.021592 0.073733 0.334315 0.131898 -0.010163 -0.012547 -0.006670 0.056553 0.017953 -0.068515 
playing 0.128334 -0.075936 0.082559 -0.115179 -0.112894 -0.021579 0.092554 -0.072241 0.042065 0.171671 0.157565 0.085798 -0.364973 -0.135447 0.092031 0.183178 0.256759 0.089626 0.031271 -0.010756 -0.124096 0.191494 0.038063 -0.041066 0.085534 -0.160441 -0.125121 0.022825 0.113313 0.279782 0.031400 -0.206340 -0.210720 0.154939 -0.128000 0.123168 0.238156 -0.143594 -0.096986 -0.122275 -0.064961 0.170101 -0.090630 0.005545 -0.047969 0.155798 0.037099 0.245703 -0.122039 -0.250411 0.079612 0.051958 0.195191 0.151343 0.028998 0.005889 0.012457 0.117040 0.045214 -0.112548 -0.019557 -0.007217 0.010194 -0.026964 0.020619 0.102878 -0.226443 -0.023238 0.094460 0.168325 -0.202315 -0.016461 0.281905 -0.052282 -0.196731 0.091574 -0.237836 -0.220185 -0.281257 -0.090224 -0.072613 0.146863 -0.008880 -0.112268 -0.114515 0.060124 0.161232 0.039785 0.216439 -0.038308 0.024941 0.069908 0.336860 0.130422 -0.009825 -0.008885 0.000351 0.047724 0.017213 -0.067063 
moving 0.133057 -0.068710 0.075530 -0.110723 -0.106385 -0.010750 0.082867 -0.073491 0.035498 0.168829 0.155900 0.075591 -0.359326 -0.144037 0.101635 0.175856 0.257982 0.096745 0.033339 -0.008456 -0.118780 0.184422 0.028458 -0.035661 0.080650 -0.142830 -0.121869 0.025174 0.118340 0.259296 0.027468 -0.195740 -0.206788 0.162317 -0.129122 0.106428 0.233798 -0.138329 -0.099350 -0.104438 -0.063942 0.167861 -0.077510 0.009111 -0.050570 0.151772 0.039319 0.239186 -0.119325 -0.244121 0.086041 0.050156 0.204862 0.148037 0.029973 -0.002235 0.023874 0.119767 0.034014 -0.113975 -0.031957 -0.017300 0.003015 -0.030787 0.011668 0.092930 -0.225678 -0.025918 0.077583 0.172988 -0.195888 -0.019024 0.260760 -0.041905 -0.200305 0.091038 -0.225245 -0.215252 -0.269429 -0.076946 -0.064270 0.146954 -0.009219 -0.108540 -0.103599 0.057963 0.148202 0.039489 0.206442 -0.025248 0.026534 0.061925 0.324851 0.126306 -0.007720 -0.003780 -0.003910 0.051645 0.004196 -0.062300 
looking 0.125403 -0.072043 0.072877 -0.114191 -0.117724 -0.020268 0.096836 -0.066738 0.043966 0.156942 0.162476 0.075631 -0.359362 -0.132446 0.085290 0.169051 0.257282 0.096585 0.033440 -0.000997 -0.118161 0.192722 0.041458 -0.039705 0.078074 -0.142714 -0.107182 0.034154 0.108889 0.259390 0.027415 -0.205636 -0.216058 0.153016 -0.117608 0.103384 0.228878 -0.146730 -0.081569 -0.117941 -0.051963 0.164969 -0.085953 -0.006343 -0.040113 0.154068 0.030397 0.237785 -0.111263 -0.242984 0.075543 0.038632 0.201392 0.149563 0.035697 -0.000385 0.022612 0.109843 0.044152 -0.111680 -0.018213 -0.008175 0.000156 -0.033530 0.010028 0.090046 -0.233081 -0.025230 0.078631 0.169377 -0.201000 -0.000572 0.266091 -0.048806 -0.206481 0.078302 -0.225777 -0.210690 -0.275378 -0.080611 -0.059981 0.151180 -0.007943 -0.097421 -0.118083 0.067924 0.160460 0.044801 0.208617 -0.032885 0.028171 0.062636 0.340501 0.129643 -0.010348 -0.007416 -0.005332 0.058791 0.017630 -0.061376 
listening 0.129858 -0.071685 0.069690 -0.121095 -0.107662 -0.013902 0.093923 -0.071100 0.036775 0.154988 0.161017 0.083534 -0.359096 -0.134291 0.090603 0.174644 0.265030 0.086861 0.041295 -0.010474 -0.126090 0.189913 0.037367 -0.035397 0.076673 -0.143966 -0.115042 0.031713 0.113164 0.264215 0.039272 -0.204366 -0.207637 0.149829 -0.120130 0.108008 0.233445 -0.144704 -0.081949 -0.112960 -0.051037 0.172557 -0.075633 0.001908 -0.045510 0.148292 0.043510 0.234727 -0.109698 -0.246900 0.074262 0.045708 0.195632 0.148895 0.029596 0.004547 0.012506 0.120774 0.036863 -0.108865 -0.017752 -0.009518 0.010653 -0.027820 0.004311 0.090428 -0.235610 -0.025438 0.081559 0.167528 -0.197617 -0.012672 0.275952 -0.034784 -0.191371 0.089000 -0.220973 -0.210051 -0.284826 -0.076186 -0.062218 0.141561 -0.000650 -0.102006 -0.108162 0.058716 0.152495 0.035096 0.217073 -0.039868 0.014951 0.070874 0.328434 0.142035 -0.023173 -0.009257 -0.004636 0.043321 0.013042 -0.065118 
jumping 0.135038 -0.069114 0.084938 -0.114810 -0.112641 -0.017271 0.102828 -0.065937 0.051067 0.165442 0.170333 0.089576 -0.377819 -0.142976 0.099960 0.193052 0.269690 0.095023 0.040143 -0.008701 -0.141971 0.212356 0.040312 -0.042063 0.088679 -0.150663 -0.119291 0.032045 0.126438 0.284660 0.031022 -0.214833 -0.223050 0.168347 -0.128792 0.114972 0.256050 -0.151953 -0.099270 -0.123484 -0.063039 0.182998 -0.081916 -0.001889 -0.047684 0.154777 0.036885 0.252772 -0.130987 -0.252938 0.094024 0.048828 0.220303 0.160827 0.027491 0.001416 0.006617 0.125886 0.042821 -0.113198 -0.027082 -0.018974 0.015327 -0.031203 0.015839 0.101377 -0.238024 -0.024793 0.092136 0.171027 -0.215833 -0.014630 0.297492 -0.042613 -0.215062 0.095710 -0.241365 -0.223103 -0.306201 -0.079837 -0.070135 0.150437 -0.015096 -0.115231 -0.121279 0.064530 0.173916 0.035268 0.231342 -0.037469 0.020405 0.066726 0.351329 0.140013 -0.019441 -0.000967 -0.010174 0.057435 0.017419 -0.067053 
increasing 0.124104 -0.058585 0.072126 -0.100896 -0.101146 -0.016184 0.088384 -0.062061 0.041700 0.150464 0.141505 0.066064 -0.325441 -0.122812 0.091506 0.152857 0.241005 0.086696 0.028474 -0.002736 -0.125138 0.174585 0.021665 -0.031303 0.075503 -0.138619 -0.111358 0.020708 0.099838 0.242146 0.027592 -0.186747 -0.189676 0.149558 -0.111361 0.096506 0.224579 -0.129849 -0.083166 -0.101609 -0.047365 0.163572 -0.082183 0.005365 -0.044503 0.141855 0.026703 0.219837 -0.104961 -0.222064 0.067882 0.039875 0.190801 0.144925 0.024708 0.003632 0.014189 0.098950 0.044531 -0.094444 -0.026178 -0.014670 0.002288 -0.025987 0.006299 0.095566 -0.205781 -0.025164 0.076337 0.158787 -0.185444 -0.015434 0.245886 -0.036596 -0.186123 0.077001 -0.208254 -0.198697 -0.256071 -0.083078 -0.059697 0.138102 -0.007510 -0.096228 -0.102340 0.062423 0.153204 0.033591 0.189329 -0.018583 0.025059 0.061652 0.299881 0.123846 -0.016863 -0.011535 -0.008292 0.048537 0.017718 -0.061255 
implementing 0.118567 -0.067888 0.067249 -0.099631 -0.102298 -0.021465 0.083422 -0.068365 0.039021 0.154712 0.148654 0.082448 -0.338626 -0.137433 0.093523 0.169362 0.234628 0.087766 0.031900 -0.013087 -0.115033 0.181832 0.034349 -0.025987 0.070713 -0.143094 -0.115311 0.028487 0.106073 0.250346 0.034733 -0.181763 -0.204470 0.151889 -0.110183 0.095569 0.227288 -0.128450 -0.079109 -0.108339 -0.056620 0.166857 -0.085824 -0.000921 -0.047374 0.128572 0.026986 0.229315 -0.113318 -0.232750 0.072235 0.047242 0.195071 0.143300 0.036397 0.002359 0.009947 0.112019 0.048034 -0.101479 -0.024672 -0.018257 -0.001500 -0.017511 0.007754 0.093633 -0.206675 -0.023174 0.071113 0.160823 -0.180427 -0.012201 0.256448 -0.033637 -0.199555 0.088496 -0.220177 -0.202888 -0.267595 -0.074965 -0.054655 0.146545 -0.011047 -0.092335 -0.098752 0.063929 0.151574 0.030383 0.195523 -0.034261 0.015019 0.070080 0.318880 0.127165 -0.004927 -0.000863 0.000255 0.049222 0.011570 -0.064343 
going 0.125838 -0.058455 0.070117 -0.112499 -0.101471 -0.015035 0.090298 -0.066860 0.028157 0.157261 0.155573 0.077395 -0.329752 -0.139029 0.090064 0.158490 0.246458 0.090699 0.046020 -0.005874 -0.122932 0.177054 0.025536 -0.039739 0.071677 -0.136899 -0.113003 0.020967 0.112687 0.245985 0.036854 -0.190182 -0.205155 0.150579 -0.116929 0.104793 0.233300 -0.135561 -0.080670 -0.108083 -0.064131 0.169057 -0.082149 0.003669 -0.037851 0.131015 0.039296 0.220114 -0.103121 -0.234520 0.084720 0.042932 0.194470 0.139849 0.030153 -0.002032 0.018574 0.105317 0.038390 -0.108156 -0.014413 -0.006412 0.008351 -0.017399 0.019514 0.086145 -0.216351 -0.024834 0.073717 0.162915 -0.186859 -0.018629 0.253893 -0.036363 -0.200418 0.081299 -0.221908 -0.204897 -0.269694 -0.086484 -0.068578 0.132618 -0.015198 -0.095419 -0.105385 0.055808 0.148787 0.026788 0.199337 -0.038573 0.014242 0.059858 0.313075 0.119694 -0.017958 -0.007581 -0.004522 0.053055 0.011168 -0.053686 
generating 0.118266 -0.054454 0.069840 -0.097492 -0.097505 -0.018957 0.083315 -0.061207 0.030315 0.145364 0.146458 0.068496 -0.323599 -0.127713 0.083059 0.157961 0.234243 0.089189 0.027993 -0.001632 -0.122411 0.176869 0.026942 -0.032414 0.071167 -0.135353 -0.098260 0.014663 0.094693 0.232152 0.025848 -0.183677 -0.199227 0.130695 -0.107920 0.105512 0.216496 -0.118663 -0.080396 -0.108727 -0.056851 0.151410 -0.066787 -0.005210 -0.039115 0.132999 0.023495 0.221285 -0.110718 -0.219976 0.068759 0.038144 0.188019 0.130398 0.024931 0.002688 0.011737 0.096400 0.036383 -0.098946 -0.029105 -0.014063 0.012794 -0.016139 0.014510 0.092604 -0.201442 -0.021618 0.068244 0.142530 -0.169427 -0.002120 0.243704 -0.036631 -0.179845 0.088416 -0.197327 -0.188974 -0.255160 -0.073867 -0.056187 0.132925 -0.002927 -0.095806 -0.091583 0.054722 0.136734 0.025721 0.195368 -0.021316 0.022053 0.059492 0.309426 0.117125 -0.011310 -0.002643 -0.009160 0.048713 0.018837 -0.050105 
flying 0.131555 -0.075848 0.067401 -0.123411 -0.103490 -0.012986 0.083740 -0.075735 0.037016 0.165699 0.169000 0.079917 -0.369248 -0.138570 0.090986 0.183333 0.269018 0.090740 0.036902 -0.000961 -0.139907 0.193493 0.029294 -0.047156 0.091411 -0.147155 -0.126081 0.028553 0.117699 0.265601 0.032543 -0.199594 -0.213378 0.152933 -0.124981 0.115189 0.240621 -0.140060 -0.083495 -0.106432 -0.055345 0.169489 -0.089242 0.008499 -0.040767 0.155069 0.043855 0.242480 -0.109421 -0.256137 0.088326 0.040432 0.209135 0.157224 0.030494 0.004336 0.019072 0.111097 0.037625 -0.119527 -0.017001 -0.012641 0.006856 -0.025194 0.007884 0.099429 -0.229692 -0.022728 0.093727 0.168706 -0.200971 -0.007131 0.273013 -0.045648 -0.216352 0.090221 -0.229157 -0.220020 -0.293164 -0.087691 -0.066448 0.156584 -0.008576 -0.113397 -0.123482 0.074473 0.154818 0.040537 0.228539 -0.029766 0.029330 0.077685 0.336834 0.142017 -0.017831 -0.003013 0.000727 0.050426 0.017381 -0.067147 
enhancing 0.121269 -0.077742 0.067758 -0.102179 -0.094875 -0.014126 0.087507 -0.068065 0.036867 0.164852 0.146373 0.082078 -0.339922 -0.139575 0.086337 0.163217 0.248367 0.094126 0.035633 0.001714 -0.130117 0.185270 0.021674 -0.042669 0.067820 -0.138612 -0.119253 0.027459 0.106414 0.255520 0.023129 -0.186809 -0.201518 0.149388 -0.131996 0.106630 0.230498 -0.131273 -0.088987 -0.108467 -0.058286 0.163942 -0.074919 0.003427 -0.035167 0.143663 0.029026 0.230395 -0.116503 -0.230013 0.076780 0.050430 0.185804 0.150336 0.036783 0.004330 0.022832 0.102390 0.029357 -0.116612 -0.030304 -0.002001 0.016287 -0.018917 0.010096 0.094728 -0.220332 -0.021425 0.071379 0.162290 -0.182145 -0.015628 0.255418 -0.041463 -0.192778 0.079887 -0.225210 -0.202286 -0.264769 -0.072346 -0.058776 0.137347 -0.008493 -0.100915 -0.104615 0.056377 0.144437 0.026482 0.215082 -0.024648 0.016362 0.071633 0.333558 0.139086 -0.014246 -0.001870 -0.012862 0.049838 0.016946 -0.061957 
describing 0.138010 -0.068744 0.065567 -0.116380 -0.115507 -0.021227 0.087421 -0.066196 0.034878 0.159308 0.150752 0.070331 -0.350082 -0.130337 0.097493 0.161990 0.252557 0.083122 0.043763 -0.012642 -0.119731 0.178784 0.028322 -0.038224 0.081849 -0.137213 -0.115439 0.017791 0.115167 0.255265 0.021944 -0.184226 -0.200018 0.155655 -0.114770 0.107298 0.224083 -0.145199 -0.092916 -0.101057 -0.049691 0.167925 -0.089343 0.007651 -0.044463 0.154143 0.028996 0.237798 -0.122961 -0.231209 0.080799 0.037535 0.198540 0.146204 0.039251 0.008463 0.022662 0.103022 0.030146 -0.102575 -0.019796 -0.019077 0.000133 -0.022158 0.013669 0.086858 -0.207670 -0.013123 0.075653 0.166380 -0.200935 -0.007540 0.262568 -0.035732 -0.201258 0.085790 -0.228677 -0.193676 -0.275730 -0.076753 -0.066049 0.146139 -0.015332 -0.107945 -0.099239 0.055270 0.157003 0.029455 0.212244 -0.023731 0.012475 0.071944 0.326115 0.136543 -0.013637 0.000835 -0.004997 0.044450 0.014056 -0.062580 
decreasing 0.124023 -0.072897 0.071374 -0.098037 -0.101067 -0.024425 0.087356 -0.067212 0.035387 0.165320 0.149274 0.079549 -0.356951 -0.132991 0.099345 0.164738 0.246922 0.081999 0.031636 -0.011558 -0.123214 0.195680 0.040738 -0.043085 0.080467 -0.142302 -0.116588 0.021292 0.108711 0.258035 0.024586 -0.191189 -0.208240 0.147871 -0.127685 0.107469 0.228640 -0.145915 -0.083977 -0.118784 -0.064373 0.168574 -0.079743 0.003557 -0.045615 0.145099 0.026995 0.236597 -0.112548 -0.233496 0.080948 0.037241 0.196723 0.154292 0.026204 0.006663 0.012996 0.119513 0.050344 -0.101563 -0.022715 -0.003400 -0.002306 -0.025232 0.019482 0.090091 -0.215737 -0.025548 0.085012 0.155127 -0.188462 -0.006175 0.259332 -0.049343 -0.202552 0.092373 -0.227373 -0.217562 -0.268251 -0.089907 -0.064161 0.139019 -0.015083 -0.097300 -0.098596 0.067041 0.163617 0.031865 0.212685 -0.026150 0.010856 0.074094 0.336120 0.134125 -0.012423 0.001142 -0.012070 0.046469 0.014712 -0.066520 
vanishing 0.117761 -0.055005 0.065327 -0.092448 -0.102343 -0.018482 0.083683 -0.061435 0.043258 0.148877 0.136248 0.078405 -0.328261 -0.127571 0.087665 0.152715 0.221818 0.083427 0.031919 0.000855 -0.108261 0.172123 0.032627 -0.039254 0.063289 -0.125823 -0.108883 0.013818 0.101992 0.244545 0.025506 -0.174043 -0.196755 0.141501 -0.110982 0.095957 0.209845 -0.128201 -0.082222 -0.100052 -0.051521 0.164134 -0.066383 -0.000871 -0.043033 0.137442 0.028142 0.216717 -0.106992 -0.214803 0.073623 0.035878 0.173775 0.128775 0.036744 0.010068 0.013215 0.095290 0.030116 -0.102951 -0.029303 -0.011890 0.003813 -0.022842 0.002896 0.092858 -0.208568 -0.012615 0.076353 0.147098 -0.169445 -0.000600 0.243902 -0.047278 -0.188361 0.082778 -0.212180 -0.191451 -0.249966 -0.067922 -0.059650 0.127947 -0.007168 -0.099948 -0.103940 0.054632 0.144878 0.037437 0.196601 -0.035932 0.015998 0.054473 0.304005 0.126759 -0.019654 -0.006651 0.003244 0.035913 0.017104 -0.049220 
simple 0.137590 -0.063993 0.075449 -0.111711 -0.108043 -0.009906 0.080263 -0.069650 0.051824 0.157267 0.163182 0.083968 -0.354463 -0.147760 0.121710 0.168496 0.253213 0.088508 0.025342 -0.019118 -0.150035 0.209677 0.030770 -0.040634 0.084874 -0.147186 -0.128485 0.033264 0.110130 0.264961 0.051796 -0.214250 -0.228265 0.160207 -0.130993 0.112498 0.248075 -0.133554 -0.078886 -0.107018 -0.066670 0.173102 -0.098484 0.007830 -0.044407 0.141988 0.037215 0.248464 -0.114064 -0.249759 0.092891 0.048014 0.209458 0.149733 0.046924 0.014150 0.017962 0.123180 0.038030 -0.106059 -0.006326 -0.008313 0.012934 -0.014456 0.018308 0.108200 -0.240144 -0.013136 0.086837 0.163083 -0.187387 -0.007793 0.286776 -0.038503 -0.220350 0.092582 -0.219568 -0.211726 -0.280311 -0.069033 -0.066125 0.152141 -0.016284 -0.104979 -0.127310 0.074465 0.160731 0.026559 0.207037 -0.024560 0.025719 0.064165 0.344182 0.146704 -0.027638 -0.012085 -0.006098 0.047676 0.012317 -0.064518 
big 0.122572 -0.055790 0.077008 -0.096955 -0.097864 -0.021074 0.092671 -0.067338 0.048706 0.163783 0.161420 0.084706 -0.344234 -0.134145 0.113638 0.175360 0.255684 0.081755 0.033597 -0.006687 -0.144454 0.213743 0.034530 -0.025284 0.102154 -0.141026 -0.122760 0.021070 0.112874 0.259766 0.060147 -0.212163 -0.226108 0.163260 -0.128596 0.102471 0.244203 -0.141290 -0.085020 -0.101897 -0.071461 0.171949 -0.081699 0.002883 -0.041509 0.137753 0.026065 0.236580 -0.108572 -0.250691 0.090417 0.042399 0.200475 0.148355 0.063039 0.012913 0.006304 0.114127 0.047018 -0.100237 -0.013411 -0.007325 0.025416 -0.022279 0.010928 0.101591 -0.246230 -0.015873 0.087959 0.174925 -0.185471 0.006540 0.278156 -0.048719 -0.208274 0.093676 -0.228867 -0.214386 -0.287137 -0.076593 -0.078670 0.144823 -0.021237 -0.096995 -0.126880 0.067834 0.169405 0.026073 0.196108 -0.026761 0.021013 0.067457 0.323195 0.146107 -0.027919 -0.010870 0.001278 0.049429 0.010599 -0.070195 
bright 0.118113 -0.056696 0.072485 -0.108173 -0.099264 -0.020614 0.077643 -0.057647 0.055949 0.152654 0.159940 0.075443 -0.337434 -0.132733 0.102919 0.164748 0.233438 0.085002 0.032644 -0.013134 -0.135645 0.190111 0.038399 -0.028627 0.091367 -0.136647 -0.123838 0.028682 0.095163 0.248450 0.046102 -0.205644 -0.216770 0.156927 -0.132637 0.101308 0.236521 -0.123149 -0.079185 -0.104266 -0.056455 0.156988 -0.089130 0.015831 -0.040056 0.135414 0.040101 0.235785 -0.108912 -0.240721 0.085622 0.041799 0.205773 0.151460 0.049986 0.007968 0.010298 0.110672 0.046600 -0.098800 -0.010643 -0.014875 0.012187 -0.017993 0.009144 0.102316 -0.233711 -0.016919 0.084613 0.159994 -0.181244 0.010158 0.266235 -0.035497 -0.211124 0.082463 -0.215052 -0.208153 -0.278281 -0.071756 -0.069882 0.151767 -0.014900 -0.094997 -0.117004 0.063423 0.162264 0.025342 0.193600 -0.032135 0.031805 0.053881 0.327311 0.139810 -0.026561 -0.022833 -0.001071 0.053701 0.012316 -0.053714 
cold 0.112983 -0.046456 0.067772 -0.094051 -0.098854 -0.014486 0.080372 -0.060756 0.045460 0.155143 0.156380 0.070594 -0.338727 -0.139488 0.109189 0.154031 0.236491 0.087505 0.033352 -0.017953 -0.139804 0.181418 0.038326 -0.025229 0.082932 -0.140055 -0.115180 0.019643 0.104074 0.254679 0.041684 -0.192026 -0.216099 0.140853 -0.119655 0.097312 0.228982 -0.123100 -0.076863 -0.088166 -0.057107 0.157877 -0.088806 0.005905 -0.040809 0.133821 0.035329 0.225344 -0.099217 -0.225836 0.077140 0.048686 0.190517 0.147697 0.054616 0.019635 0.019291 0.112615 0.049282 -0.098838 -0.002984 -0.012867 0.016026 -0.010488 0.008334 0.085074 -0.240549 -0.007885 0.081978 0.160161 -0.174138 0.002820 0.259065 -0.045817 -0.206158 0.082462 -0.205819 -0.202539 -0.271508 -0.069352 -0.056999 0.150048 -0.018194 -0.098312 -0.114255 0.062100 0.155242 0.026382 0.191901 -0.032071 0.023184 0.050263 0.309290 0.140419 -0.011683 -0.020234 -0.002596 0.054932 0.018690 -0.049879 
cool 0.124804 -0.053319 0.069161 -0.102604 -0.093183 -0.003053 0.083651 -0.064912 0.042890 0.154303 0.148659 0.081670 -0.348133 -0.136086 0.119752 0.165796 0.243887 0.090523 0.023872 -0.004088 -0.147579 0.200613 0.045935 -0.025042 0.091959 -0.155753 -0.126998 0.037429 0.108032 0.264495 0.047215 -0.215705 -0.218687 0.152971 -0.127316 0.100612 0.252440 -0.133621 -0.074408 -0.104853 -0.059368 0.174987 -0.087737 0.018141 -0.048971 0.134501 0.029844 0.246807 -0.097645 -0.236598 0.094558 0.052921 0.212572 0.159276 0.054522 0.006714 0.019271 0.108957 0.036209 -0.112965 -0.001449 -0.024634 0.014214 -0.018061 0.023317 0.104411 -0.229160 -0.012735 0.084580 0.162028 -0.194006 0.006752 0.279321 -0.044436 -0.206946 0.082376 -0.226583 -0.212585 -0.271850 -0.060534 -0.059450 0.155126 -0.011837 -0.105800 -0.111403 0.074976 0.167473 0.035568 0.195393 -0.018037 0.025358 0.061582 0.319973 0.141867 -0.018898 -0.021880 0.009836 0.042461 0.017684 -0.055370 
easy 0.123572 -0.059078 0.074837 -0.103167 -0.099354 -0.011386 0.083388 -0.063562 0.055476 0.160786 0.146759 0.082411 -0.356992 -0.139257 0.110244 0.175666 0.242437 0.095308 0.039356 -0.016292 -0.144671 0.203075 0.039480 -0.038854 0.089120 -0.147248 -0.115795 0.029590 0.100967 0.259059 0.043360 -0.196998 -0.211357 0.148856 -0.134003 0.108199 0.238706 -0.123376 -0.071086 -0.090315 -0.054947 0.168268 -0.082407 0.002409 -0.043056 0.148131 0.030483 0.242871 -0.102483 -0.238481 0.084799 0.050122 0.207376 0.144538 0.055609 0.007747 0.021651 0.116515 0.045027 -0.112789 -0.006022 -0.021589 0.027995 -0.020686 0.010384 0.105197 -0.242422 -0.005478 0.092709 0.167902 -0.190265 0.002899 0.277511 -0.040854 -0.214909 0.083125 -0.214491 -0.214527 -0.277088 -0.072859 -0.069606 0.146010 -0.017661 -0.109645 -0.116855 0.068502 0.148795 0.031455 0.195535 -0.030166 0.030086 0.070686 0.322264 0.129393 -0.023044 -0.018768 0.005181 0.045490 0.006027 -0.060483 
fast 0.123335 -0.054938 0.084272 -0.104809 -0.094595 -0.015446 0.083977 -0.063016 0.048272 0.156151 0.150653 0.085556 -0.349351 -0.138015 0.107143 0.172345 0.234430 0.091405 0.033080 -0.022521 -0.147472 0.205160 0.036576 -0.021954 0.094924 -0.145118 -0.121716 0.032756 0.102846 0.265334 0.055738 -0.205309 -0.224298 0.162579 -0.128322 0.117197 0.251587 -0.130814 -0.070905 -0.094930 -0.052313 0.161600 -0.094396 0.009833 -0.041177 0.140847 0.033040 0.226473 -0.094533 -0.240347 0.090543 0.038941 0.207932 0.144389 0.061858 0.009046 0.007562 0.124524 0.039773 -0.110015 -0.014526 -0.011994 0.022612 -0.015394 0.004077 0.094186 -0.246141 -0.010500 0.084953 0.169752 -0.198882 0.000486 0.271726 -0.048862 -0.215091 0.084723 -0.215184 -0.214092 -0.284768 -0.069147 -0.059400 0.153463 -0.015400 -0.105107 -0.119158 0.063039 0.165516 0.024489 0.202426 -0.029740 0.022377 0.068637 0.335078 0.141536 -0.024600 -0.022070 0.007008 0.050934 0.007561 -0.059229 
good 0.126576 -0.048041 0.082729 -0.109531 -0.106468 -0.006474 0.088511 -0.070718 0.040918 0.155866 0.149662 0.077300 -0.347295 -0.130570 0.118617 0.170934 0.235798 0.084971 0.028334 -0.021316 -0.135723 0.189414 0.044988 -0.038278 0.095813 -0.153223 -0.125543 0.021913 0.113264 0.261282 0.055681 -0.200786 -0.218093 0.160711 -0.120725 0.107699 0.254604 -0.133962 -0.073492 -0.092028 -0.067941 0.171894 -0.092806 0.003994 -0.040523 0.136890 0.041441 0.241207 -0.095172 -0.233212 0.079089 0.048072 0.202148 0.138733 0.046333 0.014862 0.010134 0.122837 0.037637 -0.109459 0.001116 -0.019773 0.027147 -0.023069 0.024316 0.098492 -0.234076 -0.017234 0.092465 0.166141 -0.193952 -0.010480 0.277980 -0.045876 -0.208029 0.082963 -0.214238 -0.210090 -0.280941 -0.058517 -0.058448 0.154567 -0.007562 -0.108861 -0.122451 0.069121 0.153392 0.027285 0.196227 -0.016202 0.024288 0.066804 0.324612 0.148016 -0.016223 -0.027786 0.000345 0.040489 0.002338 -0.053682 
great 0.125466 -0.049558 0.077325 -0.104775 -0.105276 -0.013916 0.084310 -0.070748 0.052028 0.153692 0.151694 0.075013 -0.341432 -0.145780 0.114723 0.157733 0.231051 0.079765 0.030525 -0.015474 -0.142918 0.186391 0.031387 -0.027813 0.085349 -0.151154 -0.128133 0.019967 0.110823 0.255602 0.040911 -0.209389 -0.215251 0.150669 -0.133811 0.103062 0.241286 -0.130494 -0.079550 -0.107507 -0.067586 0.159097 -0.080397 0.002561 -0.038664 0.135602 0.039321 0.230738 -0.107302 -0.235528 0.080640 0.051913 0.196747 0.135461 0.047841 0.018038 0.011873 0.116066 0.048271 -0.102269 -0.012926 -0.012883 0.021155 -0.017326 0.016730 0.089399 -0.239105 -0.014734 0.082641 0.157987 -0.189725 -0.000824 0.261941 -0.035711 -0.217524 0.081046 -0.207028 -0.212840 -0.264439 -0.075221 -0.071169 0.148981 -0.005295 -0.100971 -0.115932 0.070228 0.154535 0.027111 0.198327 -0.026030 0.018284 0.062431 0.314812 0.138660 -0.016593 -0.023198 -0.000258 0.051621 0.003390 -0.053333 
high 0.130997 -0.061610 0.071480 -0.101311 -0.098375 -0.018196 0.085181 -0.062959 0.059239 0.151459 0.161333 0.092338 -0.358371 -0.141021 0.103227 0.166890 0.244483 0.089048 0.035130 -0.008898 -0.151475 0.195990 0.031385 -0.029540 0.096713 -0.155145 -0.127708 0.023655 0.110608 0.270695 0.050885 -0.208310 -0.222973 0.156642 -0.132332 0.113984 0.255044 -0.127356 -0.068685 -0.101600 -0.068989 0.173159 -0.095910 0.005929 -0.046017 0.135289 0.039505 0.244089 -0.101761 -0.238512 0.088616 0.054677 0.205278 0.139492 0.061077 0.021387 0.010582 0.122945 0.042543 -0.098360 -0.002433 -0.024247 0.019736 -0.023923 0.009452 0.105725 -0.245569 -0.020002 0.090997 0.168489 -0.186449 0.005968 0.270269 -0.044781 -0.220913 0.088518 -0.223392 -0.210323 -0.267472 -0.068624 -0.073145 0.158271 -0.011735 -0.104116 -0.107733 0.066419 0.169998 0.031578 0.192984 -0.028898 0.021592 0.061607 0.324683 0.150038 -0.030738 -0.018560 -0.007743 0.055366 0.011366 -0.054609 
young 0.142093 -0.057535 0.074326 -0.119835 -0.100281 -0.017348 0.084572 -0.067827 0.058101 0.174776 0.169479 0.085383 -0.365861 -0.135173 0.118875 0.166052 0.254700 0.097518 0.037393 -0.013485 -0.158897 0.206242 0.038293 -0.034226 0.090942 -0.154017 -0.137817 0.018463 0.118827 0.278591 0.051599 -0.214305 -0.226262 0.154593 -0.144210 0.118585 0.247466 -0.132055 -0.075146 -0.102652 -0.071649 0.162637 -0.103338 0.017889 -0.036523 0.151219 0.036074 0.234545 -0.115611 -0.240766 0.096945 0.038663 0.220868 0.151565 0.051390 0.018229 0.015687 0.117360 0.049442 -0.116568 -0.003429 -0.014045 0.006908 -0.012992 0.003173 0.105922 -0.245159 -0.008952 0.094334 0.173397 -0.201468 -0.000971 0.277410 -0.053270 -0.209323 0.086608 -0.231981 -0.226202 -0.286472 -0.075455 -0.062923 0.169299 -0.009833 -0.103857 -0.111534 0.063062 0.173596 0.029175 0.198809 -0.024664 0.034444 0.063276 0.350395 0.137054 -0.032676 -0.030614 0.001656 0.042240 0.019582 -0.072445 
hot 0.115879 -0.058768 0.078782 -0.114091 -0.095515 -0.004924 0.079147 -0.068763 0.051985 0.161822 0.155434 0.092144 -0.351819 -0.135039 0.101172 0.167213 0.249719 0.095437 0.038935 -0.014605 -0.135504 0.204636 0.042200 -0.021870 0.098459 -0.150651 -0.117419 0.039472 0.106029 0.255448 0.047783 -0.199404 -0.218108 0.164460 -0.133950 0.100572 0.243947 -0.131056 -0.077809 -0.099888 -0.064935 0.169632 -0.082634 0.019118 -0.049142 0.128830 0.040835 0.245937 -0.107997 -0.244963 0.080712 0.048926 0.196222 0.155055 0.064785 0.018667 0.021218 0.112933 0.048479 -0.093056 -0.011619 -0.021827 0.019886 -0.018039 0.007977 0.089813 -0.237793 -0.009334 0.096516 0.170834 -0.194547 -0.009613 0.275743 -0.054767 -0.203378 0.076389 -0.228910 -0.211913 -0.273960 -0.064238 -0.071274 0.155659 -0.013441 -0.108109 -0.112710 0.063409 0.162721 0.021906 0.191688 -0.025475 0.027235 0.059233 0.319229 0.151459 -0.024443 -0.009070 0.005851 0.049479 0.009418 -0.062794 
wide 0.130820 -0.049472 0.077246 -0.107243 -0.104262 -0.007478 0.082221 -0.062818 0.060477 0.166050 0.160080 0.084359 -0.369655 -0.141774 0.107525 0.165670 0.249734 0.084540 0.030232 -0.013620 -0.149004 0.200495 0.049502 -0.039562 0.087394 -0.155247 -0.121942 0.030697 0.116094 0.273931 0.040862 -0.213808 -0.231200 0.151016 -0.125982 0.119973 0.252302 -0.131914 -0.084751 -0.106578 -0.057153 0.171598 -0.103100 0.015454 -0.042889 0.147178 0.033381 0.240874 -0.114805 -0.247437 0.084362 0.047237 0.215946 0.163727 0.060930 0.006102 0.006360 0.127771 0.048530 -0.112118 -0.011789 -0.021292 0.013665 -0.013761 0.007083 0.108934 -0.257381 -0.015965 0.088214 0.159442 -0.205049 0.006204 0.290511 -0.047299 -0.224546 0.083276 -0.237706 -0.226649 -0.293829 -0.066607 -0.058643 0.165898 -0.013548 -0.108898 -0.129439 0.064560 0.166425 0.032357 0.202301 -0.020787 0.017275 0.068871 0.338632 0.152343 -0.020291 -0.021392 0.005008 0.052001 0.003246 -0.068345 
weak 0.125112 -0.061824 0.083058 -0.113956 -0.116493 -0.007666 0.096870 -0.074022 0.051458 0.170684 0.164679 0.089601 -0.363336 -0.136278 0.125930 0.183420 0.256688 0.090218 0.028641 -0.022814 -0.152594 0.217276 0.029281 -0.045575 0.091359 -0.160385 -0.122429 0.026650 0.115352 0.285552 0.051758 -0.215797 -0.237585 0.164012 -0.142380 0.103592 0.251426 -0.139815 -0.087045 -0.112833 -0.055633 0.163673 -0.096266 0.016953 -0.041299 0.154702 0.039113 0.250136 -0.100995 -0.250084 0.099865 0.036635 0.212074 0.163117 0.056222 0.022645 0.008821 0.121286 0.043210 -0.103617 -0.007080 -0.020888 0.022899 -0.013268 0.005833 0.100787 -0.251237 -0.020260 0.088928 0.171156 -0.210901 0.006361 0.285257 -0.052167 -0.212959 0.083878 -0.232071 -0.224610 -0.286079 -0.068233 -0.065782 0.159236 -0.028493 -0.109004 -0.114807 0.069054 0.176000 0.042457 0.207067 -0.022751 0.032300 0.061207 0.352999 0.143226 -0.015451 -0.018114 -0.007136 0.046258 0.011789 -0.061892 
warm 0.144353 -0.054174 0.093582 -0.114890 -0.119359 -0.026546 0.083537 -0.059987 0.061057 0.186489 0.179122 0.079568 -0.394064 -0.140060 0.130663 0.196373 0.257482 0.106624 0.033565 -0.025725 -0.157081 0.215661 0.045769 -0.047472 0.107155 -0.168109 -0.147722 0.028451 0.108807 0.292159 0.067155 -0.233412 -0.255899 0.166726 -0.145421 0.119519 0.278804 -0.132768 -0.082746 -0.126521 -0.058079 0.176904 -0.112660 0.018802 -0.039663 0.156798 0.053972 0.271771 -0.116115 -0.272705 0.100174 0.045960 0.234262 0.174831 0.045455 0.013459 0.025175 0.141164 0.055318 -0.106006 -0.008933 -0.027549 0.034544 -0.019237 0.012776 0.097504 -0.274016 -0.024597 0.095869 0.184597 -0.201320 0.003105 0.289838 -0.051378 -0.251272 0.093623 -0.238089 -0.223741 -0.300156 -0.079693 -0.063266 0.165903 -0.017667 -0.121005 -0.111467 0.073477 0.161056 0.019479 0.208161 -0.031028 0.043015 0.065691 0.370559 0.153042 -0.022385 -0.011240 0.006980 0.057183 0.007992 -0.060164 
tall 0.130665 -0.048637 0.086315 -0.118617 -0.110521 -0.017945 0.089208 -0.063947 0.050232 0.173932 0.160571 0.087956 -0.378122 -0.159359 0.128420 0.180921 0.258312 0.099043 0.038147 -0.012522 -0.154743 0.218984 0.044151 -0.033919 0.092765 -0.164445 -0.128341 0.029342 0.113194 0.291308 0.062906 -0.213818 -0.241227 0.156518 -0.132905 0.108136 0.263672 -0.130629 -0.083070 -0.108358 -0.068334 0.181532 -0.100733 0.008365 -0.040037 0.154720 0.047872 0.251512 -0.107126 -0.253532 0.091332 0.044549 0.221939 0.166037 0.051371 0.016401 0.011060 0.119479 0.047792 -0.113914 -0.002129 -0.005232 0.013233 -0.025313 0.008868 0.095739 -0.254493 -0.014868 0.104641 0.173820 -0.210783 0.004816 0.287188 -0.046947 -0.225813 0.091956 -0.235392 -0.232453 -0.297097 -0.072087 -0.075615 0.167660 -0.020321 -0.111067 -0.129076 0.076905 0.177802 0.029698 0.205114 -0.022735 0.029457 0.074265 0.355937 0.155510 -0.017624 -0.017291 0.007231 0.059596 0.004691 -0.068753 
large 0.120484 -0.046031 0.076406 -0.101003 -0.104586 -0.003637 0.084780 -0.073723 0.045589 0.156771 0.152598 0.083809 -0.337682 -0.133251 0.105141 0.159360 0.237983 0.089265 0.032025 -0.019796 -0.134726 0.184511 0.036799 -0.033638 0.088172 -0.145147 -0.122426 0.032384 0.095271 0.258840 0.041960 -0.203563 -0.206384 0.143316 -0.131167 0.103093 0.231127 -0.131633 -0.079805 -0.093563 -0.050635 0.163945 -0.092674 0.006271 -0.047081 0.130512 0.030414 0.229043 -0.110537 -0.237234 0.080687 0.040074 0.192243 0.141471 0.058269 0.010409 0.005381 0.106830 0.037439 -0.109957 -0.015208 -0.007219 0.020327 -0.020963 0.009516 0.087173 -0.232089 -0.016635 0.084534 0.159822 -0.185570 0.006734 0.268691 -0.041111 -0.205894 0.076234 -0.209031 -0.211033 -0.266584 -0.060846 -0.060755 0.153239 -0.020504 -0.093353 -0.105069 0.064315 0.165169 0.031071 0.201041 -0.025667 0.028224 0.063300 0.318310 0.132070 -0.015440 -0.010435 0.006998 0.054783 0.008612 -0.056200 
strong 0.133357 -0.059199 0.079881 -0.112936 -0.102556 -0.017417 0.080406 -0.067699 0.052455 0.168682 0.165355 0.084723 -0.372640 -0.141945 0.108234 0.179061 0.256958 0.089309 0.034340 -0.016783 -0.143937 0.208694 0.041190 -0.032703 0.094675 -0.158460 -0.127949 0.031168 0.113851 0.276793 0.054791 -0.211112 -0.227415 0.157577 -0.134553 0.107868 0.259605 -0.131344 -0.083819 -0.117265 -0.067037 0.175446 -0.084692 0.010672 -0.038397 0.154658 0.043875 0.252838 -0.111331 -0.246558 0.091230 0.040446 0.219118 0.159038 0.051189 0.019296 0.016439 0.119224 0.048241 -0.119329 -0.016134 -0.011196 0.024871 -0.018328 0.007826 0.106209 -0.253496 -0.022420 0.094988 0.168983 -0.203153 0.005043 0.277779 -0.047276 -0.212799 0.096024 -0.228785 -0.219050 -0.295608 -0.076939 -0.072558 0.159986 -0.019492 -0.112706 -0.117403 0.070374 0.168661 0.033429 0.206285 -0.022007 0.026438 0.065507 0.339891 0.141677 -0.023401 -0.015267 -0.005981 0.048962 0.020858 -0.061254 
smart 0.125947 -0.055163 0.085436 -0.116694 -0.094129 -0.004610 0.084295 -0.063493 0.048656 0.155179 0.150141 0.072297 -0.345698 -0.136255 0.108978 0.172431 0.252777 0.092304 0.028505 -0.019256 -0.140480 0.196473 0.046674 -0.035073 0.100280 -0.154777 -0.125389 0.022699 0.113421 0.262981 0.059343 -0.211008 -0.215606 0.157348 -0.123339 0.110384 0.253675 -0.135032 -0.075232 -0.099072 -0.061841 0.169708 -0.092212 0.002193 -0.035527 0.147836 0.031231 0.239302 -0.109485 -0.244100 0.087417 0.045464 0.199567 0.152826 0.054253 0.013904 0.023420 0.111795 0.038179 -0.100312 -0.011177 -0.015271 0.018607 -0.026441 0.022525 0.094783 -0.241915 -0.013654 0.096320 0.164460 -0.195362 0.006799 0.269825 -0.035032 -0.209742 0.084752 -0.212505 -0.207724 -0.277976 -0.068236 -0.067664 0.155718 -0.013942 -0.096831 -0.116861 0.073400 0.161923 0.040618 0.205689 -0.021913 0.022918 0.070440 0.336461 0.140022 -0.016438 -0.022229 -0.006871 0.058814 0.011322 -0.056238 
small 0.131694 -0.051056 0.083625 -0.102933 -0.100580 -0.020116 0.089295 -0.067900 0.041103 0.157602 0.155944 0.075593 -0.345221 -0.139880 0.115612 0.167762 0.235780 0.092297 0.030241 -0.010937 -0.131266 0.191759 0.030153 -0.035501 0.089783 -0.141332 -0.121108 0.032813 0.104017 0.260931 0.043202 -0.209650 -0.220724 0.151798 -0.127716 0.104968 0.241644 -0.122767 -0.086421 -0.101996 -0.067433 0.155170 -0.092715 0.011650 -0.035640 0.137136 0.043126 0.239977 -0.094336 -0.238348 0.076810 0.054074 0.193703 0.148168 0.057082 0.004698 0.005266 0.114862 0.044779 -0.099451 -0.000651 -0.008550 0.019930 -0.014292 0.011085 0.091684 -0.229220 -0.010218 0.090132 0.165116 -0.185774 -0.000654 0.266699 -0.046633 -0.215319 0.089616 -0.222568 -0.217243 -0.277181 -0.073794 -0.061182 0.144211 -0.022210 -0.107276 -0.121512 0.067914 0.160623 0.025414 0.205067 -0.021934 0.024766 0.050427 0.324618 0.145109 -0.025867 -0.012081 -0.000150 0.053650 0.018760 -0.064985 
bad 0.131236 -0.061784 0.086395 -0.108529 -0.099359 -0.013044 0.086151 -0.068777 0.055639 0.158234 0.156265 0.088316 -0.354278 -0.139641 0.116623 0.172856 0.240287 0.085607 0.025069 -0.017466 -0.134961 0.200365 0.042052 -0.031334 0.094823 -0.147736 -0.118113 0.024286 0.113092 0.268221 0.045714 -0.210087 -0.227269 0.155729 -0.125076 0.103727 0.250616 -0.128230 -0.074205 -0.096760 -0.063501 0.171480 -0.093982 0.019300 -0.049633 0.140652 0.029838 0.242684 -0.099767 -0.243594 0.077265 0.052499 0.204063 0.147872 0.055423 0.010444 0.009059 0.113469 0.047670 -0.095358 -0.014673 -0.007816 0.017443 -0.022904 0.010495 0.100029 -0.243173 -0.016494 0.086275 0.163362 -0.189764 0.009739 0.276229 -0.036760 -0.212996 0.079661 -0.228289 -0.208170 -0.281935 -0.072709 -0.072489 0.157920 -0.009794 -0.093684 -0.114317 0.062342 0.155393 0.035898 0.187729 -0.019275 0.021975 0.069565 0.330616 0.146261 -0.027525 -0.010772 0.002326 0.051322 0.019110 -0.068053 
short 0.137680 -0.062679 0.089281 -0.115647 -0.107597 -0.008703 0.082145 -0.064069 0.044958 0.165599 0.164847 0.091122 -0.364623 -0.149406 0.119487 0.165546 0.251960 0.097997 0.033248 -0.025781 -0.144562 0.199089 0.036274 -0.035308 0.089950 -0.155320 -0.128599 0.025093 0.105887 0.270773 0.053232 -0.204892 -0.232616 0.162411 -0.132094 0.115836 0.251407 -0.132247 -0.084080 -0.103250 -0.072649 0.167999 -0.093956 0.015282 -0.037402 0.143574 0.039434 0.251592 -0.108240 -0.254187 0.094815 0.053366 0.211711 0.151729 0.061224 0.016952 0.016989 0.118326 0.039966 -0.105998 -0.007485 -0.009461 0.020277 -0.024170 0.021220 0.105514 -0.255567 -0.008313 0.084533 0.164527 -0.202030 -0.002407 0.279724 -0.044486 -0.225032 0.078637 -0.228667 -0.225551 -0.283172 -0.071487 -0.061855 0.158161 -0.018166 -0.101733 -0.121573 0.065422 0.158039 0.036071 0.206918 -0.028356 0.023254 0.059116 0.341438 0.145275 -0.028512 -0.015774 0.002908 0.055951 0.004040 -0.064558 
sharp 0.134184 -0.056457 0.087393 -0.101495 -0.104476 -0.006865 0.079647 -0.066218 0.045479 0.155363 0.162807 0.087119 -0.349672 -0.143190 0.117244 0.167143 0.242785 0.096018 0.039926 -0.021461 -0.145783 0.203755 0.037395 -0.030568 0.097124 -0.150857 -0.128669 0.031227 0.105701 0.269376 0.051561 -0.205585 -0.217815 0.158871 -0.125545 0.111337 0.250122 -0.127081 -0.071292 -0.103342 -0.056276 0.169488 -0.095251 0.006439 -0.051784 0.138410 0.033947 0.237797 -0.114989 -0.246938 0.082385 0.050731 0.212997 0.152969 0.057043 0.017748 0.016757 0.119947 0.051908 -0.100298 -0.017226 -0.017324 0.023542 -0.018125 0.018666 0.102953 -0.239665 -0.006292 0.093188 0.171949 -0.200778 0.007699 0.278793 -0.046695 -0.217648 0.078908 -0.227520 -0.215721 -0.284113 -0.074920 -0.072173 0.160069 -0.019825 -0.104322 -0.116409 0.067348 0.167684 0.027231 0.199777 -0.025603 0.020548 0.059048 0.343448 0.150138 -0.020575 -0.015408 0.003785 0.048741 0.016063 -0.061460 
long 0.123078 -0.056905 0.088815 -0.111008 -0.102836 -0.019117 0.087712 -0.072459 0.055396 0.154381 0.161532 0.083003 -0.359930 -0.146899 0.109873 0.173334 0.248683 0.084877 0.031575 -0.008347 -0.143845 0.191379 0.029545 -0.027127 0.096233 -0.153685 -0.120359 0.024318 0.112133 0.272783 0.048640 -0.209573 -0.221858 0.153284 -0.133462 0.106220 0.243036 -0.136122 -0.073381 -0.103251 -0.064866 0.161572 -0.089992 0.002477 -0.048899 0.137679 0.035437 0.238867 -0.104005 -0.246347 0.084740 0.049301 0.202521 0.151517 0.052169 0.002081 0.016499 0.116871 0.043229 -0.113387 -0.017314 -0.016830 0.022770 -0.018340 0.007728 0.098479 -0.247314 -0.018636 0.083093 0.163220 -0.190414 -0.002005 0.276840 -0.044342 -0.218333 0.080668 -0.224662 -0.209539 -0.287512 -0.073220 -0.062443 0.156199 -0.018967 -0.107401 -0.123360 0.069526 0.161460 0.030291 0.206066 -0.027769 0.030275 0.056631 0.333358 0.146461 -0.019380 -0.010832 0.004328 0.049936 0.015436 -0.059268 
